{"learner":{"attributes":{"scikit_learn":"{\"_estimator_type\": \"classifier\"}"},"feature_names":["payment_method","transaction_amount","device_type","delivery_status","return_requested","return_reason","item_returned","item_condition","refund_issued","refund_amount","chargeback_requested","chargeback_reason","account_age_days","order_history_count","return_rate","chargeback_rate"],"feature_types":["int","float","int","int","i","int","i","int","i","float","i","int","int","int","float","float"],"gradient_booster":{"model":{"gbtree_model_param":{"num_parallel_tree":"1","num_trees":"100"},"iteration_indptr":[0,1,2,3,4,5,6,7,8,9,10,11,12,13,14,15,16,17,18,19,20,21,22,23,24,25,26,27,28,29,30,31,32,33,34,35,36,37,38,39,40,41,42,43,44,45,46,47,48,49,50,51,52,53,54,55,56,57,58,59,60,61,62,63,64,65,66,67,68,69,70,71,72,73,74,75,76,77,78,79,80,81,82,83,84,85,86,87,88,89,90,91,92,93,94,95,96,97,98,99,100],"tree_info":[0,0,0,0,0,0,0,0,0,0,0,0,0,0,0,0,0,0,0,0,0,0,0,0,0,0,0,0,0,0,0,0,0,0,0,0,0,0,0,0,0,0,0,0,0,0,0,0,0,0,0,0,0,0,0,0,0,0,0,0,0,0,0,0,0,0,0,0,0,0,0,0,0,0,0,0,0,0,0,0,0,0,0,0,0,0,0,0,0,0,0,0,0,0,0,0,0,0,0,0],"trees":[{"base_weights":[-0E0,-8.7497044E-1,9.811313E-2,-9.067186E-1,2.94408E-1,-7.6849765E-1,-1.1862165E0,-7.5E-2,6.159786E-1,-6.776889E-2,-3.5433006E-2,-5.452123E-2,-9.019948E-2,5.288309E-2,-1.3544561E-2],"categories":[],"categories_nodes":[],"categories_segments":[],"categories_sizes":[],"default_left":[0,0,0,0,0,0,0,0,0,0,0,0,0,0,0],"id":0,"left_children":[1,3,-1,5,7,9,11,-1,13,-1,-1,-1,-1,-1,-1],"loss_changes":[3.0243577E3,4.5802185E1,0E0,4.395752E1,1.9258488E1,2.603421E1,1.9644104E1,0E0,1.1859465E1,0E0,0E0,0E0,0E0,0E0,0E0],"parents":[2147483647,0,0,1,1,3,3,4,4,5,5,6,6,8,8],"right_children":[2,4,-1,6,8,10,12,-1,14,-1,-1,-1,-1,-1,-1],"split_conditions":[3E-1,6.52775E3,9.811313E-2,3.14278E3,3.72E2,2E0,5.28328E3,-7.5E-2,7.3E2,-6.776889E-2,-3.5433006E-2,-5.452123E-2,-9.019948E-2,5.288309E-2,-1.3544561E-2],"split_indices":[15,1,0,1,12,5,1,0,12,0,0,0,0,0,0],"split_type":[0,0,0,0,0,0,0,0,0,0,0,0,0,0,0],"sum_hessian":[1.7595E3,1.2172734E3,5.422266E2,1.1857334E3,3.1540022E1,7.970863E2,3.886471E2,4E0,2.7540022E1,7.0974014E1,7.261123E2,3.3956808E2,4.9079002E1,1.8632017E1,8.908005E0],"tree_param":{"num_deleted":"0","num_feature":"16","num_nodes":"15","size_leaf_vector":"1"}},{"base_weights":[-0E0,-8.320112E-1,9.344454E-2,-8.6214536E-1,2.7722004E-1,-7.305222E-1,-1.1283798E0,-7.208242E-2,5.8596575E-1,-6.450178E-2,-3.3674534E-2,-5.184224E-2,-8.595365E-2,5.0407637E-2,-1.2936237E-2],"categories":[],"categories_nodes":[],"categories_segments":[],"categories_sizes":[],"default_left":[0,0,0,0,0,0,0,0,0,0,0,0,0,0,0],"id":1,"left_children":[1,3,-1,5,7,9,11,-1,13,-1,-1,-1,-1,-1,-1],"loss_changes":[2.7356758E3,4.1230408E1,0E0,3.9809326E1,1.7675575E1,2.3606415E1,1.7888489E1,0E0,1.0808629E1,0E0,0E0,0E0,0E0,0E0,0E0],"parents":[2147483647,0,0,1,1,3,3,4,4,5,5,6,6,8,8],"right_children":[2,4,-1,6,8,10,12,-1,14,-1,-1,-1,-1,-1,-1],"split_conditions":[3E-1,6.52775E3,9.344454E-2,3.14278E3,3.72E2,2E0,5.28328E3,-7.208242E-2,7.3E2,-6.450178E-2,-3.3674534E-2,-5.184224E-2,-8.595365E-2,5.0407637E-2,-1.2936237E-2],"split_indices":[15,1,0,1,12,5,1,0,12,0,0,0,0,0,0],"split_type":[0,0,0,0,0,0,0,0,0,0,0,0,0,0,0],"sum_hessian":[1.757517E3,1.2165931E3,5.409238E2,1.1850721E3,3.1520973E1,7.96777E2,3.8829517E2,3.9943805E0,2.7526592E1,7.0892586E1,7.258844E2,3.3931586E2,4.8979317E1,1.8618996E1,8.907596E0],"tree_param":{"num_deleted":"0","num_feature":"16","num_nodes":"15","size_leaf_vector":"1"}},{"base_weights":[-0E0,-7.9198986E-1,8.93956E-2,-8.2061815E-1,2.6119778E-1,-6.949256E-1,-1.0751703E0,-6.9426596E-2,5.5787134E-1,-6.152131E-2,-3.2021906E-2,-4.936261E-2,-8.221174E-2,4.8107535E-2,-1.2356171E-2],"categories":[],"categories_nodes":[],"categories_segments":[],"categories_sizes":[],"default_left":[0,0,0,0,0,0,0,0,0,0,0,0,0,0,0],"id":2,"left_children":[1,3,-1,5,7,9,11,-1,13,-1,-1,-1,-1,-1,-1],"loss_changes":[2.4832275E3,3.7148193E1,0E0,3.6257324E1,1.6249802E1,2.152884E1,1.6488525E1,0E0,9.866775E0,0E0,0E0,0E0,0E0,0E0,0E0],"parents":[2147483647,0,0,1,1,3,3,4,4,5,5,6,6,8,8],"right_children":[2,4,-1,6,8,10,12,-1,14,-1,-1,-1,-1,-1,-1],"split_conditions":[3E-1,6.52775E3,8.93956E-2,3.14278E3,3.72E2,2E0,5.28328E3,-6.9426596E-2,7.3E2,-6.152131E-2,-3.2021906E-2,-4.936261E-2,-8.221174E-2,4.8107535E-2,-1.2356171E-2],"split_indices":[15,1,0,1,12,5,1,0,12,0,0,0,0,0,0],"split_type":[0,0,0,0,0,0,0,0,0,0,0,0,0,0,0],"sum_hessian":[1.7519702E3,1.2146875E3,5.372827E2,1.1832202E3,3.1467297E1,7.9591046E2,3.873097E2,3.9784443E0,2.7488852E1,7.066448E1,7.25246E2,3.3860947E2,4.8700237E1,1.8582409E1,8.906443E0],"tree_param":{"num_deleted":"0","num_feature":"16","num_nodes":"15","size_leaf_vector":"1"}},{"base_weights":[-0E0,-7.5456893E-1,8.5851885E-2,-7.817871E-1,2.46208E-1,-6.6147155E-1,-1.0259469E0,-6.6996545E-2,5.3149205E-1,-5.878457E-2,-3.0465445E-2,-4.7056746E-2,-7.888508E-2,4.5961466E-2,-1.1802928E-2],"categories":[],"categories_nodes":[],"categories_segments":[],"categories_sizes":[],"default_left":[0,0,0,0,0,0,0,0,0,0,0,0,0,0,0],"id":3,"left_children":[1,3,-1,5,7,9,11,-1,13,-1,-1,-1,-1,-1,-1],"loss_changes":[2.2609185E3,3.3494507E1,0E0,3.3181396E1,1.4961611E1,1.9730804E1,1.535556E1,0E0,9.019663E0,0E0,0E0,0E0,0E0,0E0,0E0],"parents":[2147483647,0,0,1,1,3,3,4,4,5,5,6,6,8,8],"right_children":[2,4,-1,6,8,10,12,-1,14,-1,-1,-1,-1,-1,-1],"split_conditions":[3E-1,6.52775E3,8.5851885E-2,3.14278E3,3.72E2,2E0,5.28328E3,-6.6996545E-2,7.3E2,-5.878457E-2,-3.0465445E-2,-4.7056746E-2,-7.888508E-2,4.5961466E-2,-1.1802928E-2],"split_indices":[15,1,0,1,12,5,1,0,12,0,0,0,0,0,0],"split_type":[0,0,0,0,0,0,0,0,0,0,0,0,0,0,0],"sum_hessian":[1.7434069E3,1.2117411E3,5.316657E2,1.1803573E3,3.138379E1,7.945707E2,3.8578668E2,3.9534876E0,2.7430302E1,7.031179E1,7.2425885E2,3.375177E2,4.8268993E1,1.8525656E1,8.904646E0],"tree_param":{"num_deleted":"0","num_feature":"16","num_nodes":"15","size_leaf_vector":"1"}},{"base_weights":[-6.851001E-6,-7.1946543E-1,8.272552E-2,-7.4535894E-1,2.3213851E-1,-6.299581E-1,-9.8018485E-1,-6.47624E-2,5.0665504E-1,-4.0885698E-2,-2.4729885E-2,-4.4903487E-2,-7.590431E-2,4.3951586E-2,-1.12751E-2],"categories":[],"categories_nodes":[],"categories_segments":[],"categories_sizes":[],"default_left":[0,0,0,0,0,0,0,0,0,0,0,0,0,0,0],"id":4,"left_children":[1,3,-1,5,7,9,11,-1,13,-1,-1,-1,-1,-1,-1],"loss_changes":[2.0639758E3,3.0217834E1,0E0,3.0490479E1,1.3794515E1,1.911441E1,1.4425568E1,0E0,8.255384E0,0E0,0E0,0E0,0E0,0E0,0E0],"parents":[2147483647,0,0,1,1,3,3,4,4,5,5,6,6,8,8],"right_children":[2,4,-1,6,8,10,12,-1,14,-1,-1,-1,-1,-1,-1],"split_conditions":[3E-1,6.52775E3,8.272552E-2,3.14278E3,3.72E2,5E-2,5.28328E3,-6.47624E-2,7.3E2,-4.0885698E-2,-2.4729885E-2,-4.4903487E-2,-7.590431E-2,4.3951586E-2,-1.12751E-2],"split_indices":[15,1,0,1,12,15,1,0,12,0,0,0,0,0,0],"split_type":[0,0,0,0,0,0,0,0,0,0,0,0,0,0,0],"sum_hessian":[1.7323065E3,1.2079171E3,5.2438934E2,1.1766423E3,3.127474E1,7.928318E2,3.8381058E2,3.920689E0,2.7354052E1,3.2847525E2,4.6435654E2,3.3610107E2,4.7709503E1,1.8451756E1,8.902296E0],"tree_param":{"num_deleted":"0","num_feature":"16","num_nodes":"15","size_leaf_vector":"1"}},{"base_weights":[-0E0,-6.863621E-1,7.9947785E-2,-7.1100354E-1,2.188945E-1,-6.0010415E-1,-9.374504E-1,-6.269914E-2,4.8321298E-1,-5.495884E-2,-2.7491173E-2,-4.2885177E-2,-7.321434E-2,4.578292E-2,-5.1307674E-3],"categories":[],"categories_nodes":[],"categories_segments":[],"categories_sizes":[],"default_left":[0,0,0,0,0,0,0,0,0,0,0,0,0,0,0],"id":5,"left_children":[1,3,-1,5,7,9,11,-1,13,-1,-1,-1,-1,-1,-1],"loss_changes":[1.8885168E3,2.7269348E1,0E0,2.8133911E1,1.2734486E1,1.8441895E1,1.3651398E1,0E0,7.660561E0,0E0,0E0,0E0,0E0,0E0,0E0],"parents":[2147483647,0,0,1,1,3,3,4,4,5,5,6,6,8,8],"right_children":[2,4,-1,6,8,10,12,-1,14,-1,-1,-1,-1,-1,-1],"split_conditions":[3E-1,6.52775E3,7.9947785E-2,3.14278E3,3.72E2,2E0,5.28328E3,-6.269914E-2,2E0,-5.495884E-2,-2.7491173E-2,-4.2885177E-2,-7.321434E-2,4.578292E-2,-5.1307674E-3],"split_indices":[15,1,0,1,12,5,1,0,0,0,0,0,0,0,0],"split_type":[0,0,0,0,0,0,0,0,0,0,0,0,0,0,0],"sum_hessian":[1.7191913E3,1.2034608E3,5.1573047E2,1.1723169E3,3.114398E1,7.908612E2,3.8145566E2,3.8811202E0,2.726286E1,6.956571E1,7.212955E2,3.3441287E2,4.7042774E1,1.5851853E1,1.1411007E1],"tree_param":{"num_deleted":"0","num_feature":"16","num_nodes":"15","size_leaf_vector":"1"}},{"base_weights":[-0E0,-6.5518564E-1,7.7464186E-2,-6.0647756E-1,-1.1061093E0,-6.312785E-1,6.231863E-1,-1.5148461E0,-4.2092335E-1,-2.6860848E-2,-4.2532258E-2,4.9361367E-2,-0E0,-0E0,-8.048629E-2,1.8714054E-2,-5.5274248E-2],"categories":[],"categories_nodes":[],"categories_segments":[],"categories_sizes":[],"default_left":[0,0,0,0,0,0,0,0,0,0,0,0,0,0,0,0,0],"id":6,"left_children":[1,3,-1,5,7,9,11,13,15,-1,-1,-1,-1,-1,-1,-1,-1],"loss_changes":[1.7316138E3,2.4814636E1,0E0,3.3505676E1,3.051921E1,2.0825531E1,5.249527E0,9.467178E0,2.5113127E1,0E0,0E0,0E0,0E0,0E0,0E0,0E0,0E0],"parents":[2147483647,0,0,1,1,3,3,4,4,5,5,6,6,7,7,8,8],"right_children":[2,4,-1,6,8,10,12,14,16,-1,-1,-1,-1,-1,-1,-1,-1],"split_conditions":[3E-1,1.58887E3,7.7464186E-2,6.74708E3,2.1E-1,3.14278E3,2E0,8E0,2.91E2,-2.6860848E-2,-4.2532258E-2,4.9361367E-2,-0E0,-0E0,-8.048629E-2,1.8714054E-2,-5.5274248E-2],"split_indices":[15,9,0,1,14,1,0,13,12,0,0,0,0,0,0,0,0],"split_type":[0,0,0,0,0,0,0,0,0,0,0,0,0,0,0,0,0],"sum_hessian":[1.7042673E3,1.1983359E3,5.059313E2,1.0846298E3,1.1370625E2,1.064062E3,2.056768E1,7.000518E1,4.370107E1,7.4874023E2,3.1532184E2,1.2980429E1,7.587251E0,4.4700623E0,6.553512E1,2.008855E1,2.3612516E1],"tree_param":{"num_deleted":"0","num_feature":"16","num_nodes":"17","size_leaf_vector":"1"}},{"base_weights":[-0E0,-6.2549937E-1,7.523089E-2,-5.786062E-1,-1.0614256E0,-6.023202E-1,5.958785E-1,2.0673189E-1,-1.2566406E0,-2.5594613E-2,-4.070082E-2,4.7359914E-2,-0E0,7.073816E-2,-7.0066E-2,-7.5677656E-2,5.8398615E-3],"categories":[],"categories_nodes":[],"categories_segments":[],"categories_sizes":[],"default_left":[0,0,0,0,0,0,0,0,0,0,0,0,0,0,0,0,0],"id":7,"left_children":[1,3,-1,5,7,9,11,13,15,-1,-1,-1,-1,-1,-1,-1,-1],"loss_changes":[1.5904728E3,2.2972382E1,0E0,3.047586E1,2.8939194E1,1.9226257E1,4.839687E0,3.246482E1,3.5821045E1,0E0,0E0,0E0,0E0,0E0,0E0,0E0,0E0],"parents":[2147483647,0,0,1,1,3,3,4,4,5,5,6,6,7,7,8,8],"right_children":[2,4,-1,6,8,10,12,14,16,-1,-1,-1,-1,-1,-1,-1,-1],"split_conditions":[3E-1,1.58887E3,7.523089E-2,6.74708E3,1.2E1,3.14278E3,2E0,1.97E2,2.8E-1,-2.5594613E-2,-4.070082E-2,4.7359914E-2,-0E0,7.073816E-2,-7.0066E-2,-7.5677656E-2,5.8398615E-3],"split_indices":[15,9,0,1,13,1,0,12,14,0,0,0,0,0,0,0,0],"split_type":[0,0,0,0,0,0,0,0,0,0,0,0,0,0,0,0,0],"sum_hessian":[1.6881478E3,1.1929442E3,4.952036E2,1.080218E3,1.12726204E2,1.0597339E3,2.0484161E1,1.4688213E1,9.803799E1,7.465978E2,3.1313608E2,1.289691E1,7.587251E0,8.633515E0,6.0546975E0,8.2809784E1,1.5228204E1],"tree_param":{"num_deleted":"0","num_feature":"16","num_nodes":"17","size_leaf_vector":"1"}},{"base_weights":[-0E0,-5.973523E-1,7.321229E-2,-5.521819E-1,-1.0195955E0,-5.748616E-1,5.7003844E-1,-1.4098085E0,-3.768057E-1,4.2295083E-2,-2.9339734E-2,4.970617E-2,7.1072095E-4,-0E0,-7.498804E-2,2.6919663E-2,-4.5237124E-2],"categories":[],"categories_nodes":[],"categories_segments":[],"categories_sizes":[],"default_left":[0,0,0,0,0,0,0,0,0,0,0,0,0,0,0,0,0],"id":8,"left_children":[1,3,-1,5,7,9,11,13,15,-1,-1,-1,-1,-1,-1,-1,-1],"loss_changes":[1.463214E3,2.1311157E1,0E0,2.7729095E1,2.6809158E1,1.8272339E1,4.5237603E0,8.072128E0,2.210801E1,0E0,0E0,0E0,0E0,0E0,0E0,0E0,0E0],"parents":[2147483647,0,0,1,1,3,3,4,4,5,5,6,6,7,7,8,8],"right_children":[2,4,-1,6,8,10,12,14,16,-1,-1,-1,-1,-1,-1,-1,-1],"split_conditions":[3E-1,1.58887E3,7.321229E-2,6.74708E3,2.1E-1,1E1,2.7E1,8E0,1E0,4.2295083E-2,-2.9339734E-2,4.970617E-2,7.1072095E-4,-0E0,-7.498804E-2,2.6919663E-2,-4.5237124E-2],"split_indices":[15,9,0,1,14,12,13,13,2,0,0,0,0,0,0,0,0],"split_type":[0,0,0,0,0,0,0,0,0,0,0,0,0,0,0,0,0],"sum_hessian":[1.6708063E3,1.1870739E3,4.8373248E2,1.0755105E3,1.1156332E2,1.0551201E3,2.039035E1,6.8194145E1,4.336917E1,7.8571215E0,1.0472631E3,1.0608278E1,9.782072E0,4.4625406E0,6.37316E1,1.5511863E1,2.785731E1],"tree_param":{"num_deleted":"0","num_feature":"16","num_nodes":"17","size_leaf_vector":"1"}},{"base_weights":[-0E0,-5.7045805E-1,7.137906E-2,-5.2681947E-1,-9.810604E-1,-5.4856503E-1,5.4699373E-1,2.1022244E-1,-1.1687281E0,-2.5993345E-2,-6.0174394E-2,4.4341873E-2,-9.4981355E-5,6.73112E-2,-6.6865E-2,-7.087673E-2,6.168717E-3],"categories":[],"categories_nodes":[],"categories_segments":[],"categories_sizes":[],"default_left":[0,0,0,0,0,0,0,0,0,0,0,0,0,0,0,0,0],"id":9,"left_children":[1,3,-1,5,7,9,11,13,15,-1,-1,-1,-1,-1,-1,-1,-1],"loss_changes":[1.3479927E3,1.9909912E1,0E0,2.5327759E1,2.5608093E1,1.8275024E1,4.420768E0,2.9286484E1,3.189946E1,0E0,0E0,0E0,0E0,0E0,0E0,0E0,0E0],"parents":[2147483647,0,0,1,1,3,3,4,4,5,5,6,6,7,7,8,8],"right_children":[2,4,-1,6,8,10,12,14,16,-1,-1,-1,-1,-1,-1,-1,-1],"split_conditions":[3E-1,1.58887E3,7.137906E-2,6.74708E3,1.2E1,5.28328E3,2E0,1.97E2,2.8E-1,-2.5993345E-2,-6.0174394E-2,4.4341873E-2,-9.4981355E-5,6.73112E-2,-6.6865E-2,-7.087673E-2,6.168717E-3],"split_indices":[15,9,0,1,13,1,0,12,14,0,0,0,0,0,0,0,0],"split_type":[0,0,0,0,0,0,0,0,0,0,0,0,0,0,0,0,0],"sum_hessian":[1.6527653E3,1.1810856E3,4.716797E2,1.0707842E3,1.1030149E2,1.0504662E3,2.0317997E1,1.46324835E1,9.566901E1,1.0088179E3,4.1648285E1,1.2730953E1,7.5870447E0,8.699529E0,5.932955E0,8.046467E1,1.5204341E1],"tree_param":{"num_deleted":"0","num_feature":"16","num_nodes":"17","size_leaf_vector":"1"}},{"base_weights":[1.1647263E-4,-5.451417E-1,6.970687E-2,-5.0296783E-1,-9.4518125E-1,-5.2376467E-1,5.232801E-1,-1.3228579E0,-3.37389E-1,-3.399955E-2,-2.047162E-2,4.6593882E-2,-0E0,-0E0,-7.046641E-2,1.8700121E-2,-4.839003E-2],"categories":[],"categories_nodes":[],"categories_segments":[],"categories_sizes":[],"default_left":[0,0,0,0,0,0,0,0,0,0,0,0,0,0,0,0,0],"id":10,"left_children":[1,3,-1,5,7,9,11,13,15,-1,-1,-1,-1,-1,-1,-1,-1],"loss_changes":[1.243792E3,1.863446E1,0E0,2.304181E1,2.39394E1,1.7869995E1,4.148702E0,6.975136E0,2.0368673E1,0E0,0E0,0E0,0E0,0E0,0E0,0E0,0E0],"parents":[2147483647,0,0,1,1,3,3,4,4,5,5,6,6,7,7,8,8],"right_children":[2,4,-1,6,8,10,12,14,16,-1,-1,-1,-1,-1,-1,-1,-1],"split_conditions":[3E-1,1.58887E3,6.970687E-2,6.74708E3,2.1E-1,5E-2,2.7E1,8E0,2.91E2,-3.399955E-2,-2.047162E-2,4.6593882E-2,-0E0,-0E0,-7.046641E-2,1.8700121E-2,-4.839003E-2],"split_indices":[15,9,0,1,14,15,13,13,12,0,0,0,0,0,0,0,0],"split_type":[0,0,0,0,0,0,0,0,0,0,0,0,0,0,0,0,0],"sum_hessian":[1.6337919E3,1.174606E3,4.5918582E2,1.0657565E3,1.088495E2,1.0455454E3,2.0211102E1,6.590043E1,4.2949078E1,4.378864E2,6.07659E2,1.0465702E1,9.745399E0,4.4457912E0,6.1454636E1,1.9996979E1,2.2952099E1],"tree_param":{"num_deleted":"0","num_feature":"16","num_nodes":"17","size_leaf_vector":"1"}},{"base_weights":[2.5728793E-4,-5.2097183E-1,6.8175346E-2,-4.8012033E-1,-9.117918E-1,-5.000668E-1,5.0238305E-1,2.059553E-1,-1.0925394E0,-2.06298E-2,-3.5366435E-2,4.161337E-2,-9.197973E-4,6.352756E-2,-6.402235E-2,-6.682574E-2,6.579743E-3],"categories":[],"categories_nodes":[],"categories_segments":[],"categories_sizes":[],"default_left":[0,0,0,0,0,0,0,0,0,0,0,0,0,0,0,0,0],"id":11,"left_children":[1,3,-1,5,7,9,11,13,15,-1,-1,-1,-1,-1,-1,-1,-1],"loss_changes":[1.1490498E3,1.7532043E1,0E0,2.105783E1,2.2562424E1,1.8032227E1,4.051727E0,2.62147E1,2.8801239E1,0E0,0E0,0E0,0E0,0E0,0E0,0E0,0E0],"parents":[2147483647,0,0,1,1,3,3,4,4,5,5,6,6,7,7,8,8],"right_children":[2,4,-1,6,8,10,12,14,16,-1,-1,-1,-1,-1,-1,-1,-1],"split_conditions":[3E-1,1.58887E3,6.8175346E-2,6.74708E3,1.2E1,3.14278E3,2E0,1.97E2,2.8E-1,-2.06298E-2,-3.5366435E-2,4.161337E-2,-9.197973E-4,6.352756E-2,-6.402235E-2,-6.682574E-2,6.579743E-3],"split_indices":[15,9,0,1,13,1,0,12,14,0,0,0,0,0,0,0,0],"split_type":[0,0,0,0,0,0,0,0,0,0,0,0,0,0,0,0,0],"sum_hessian":[1.6144995E3,1.1681257E3,4.4637378E2,1.0607552E3,1.07370514E2,1.0406287E3,2.0126587E1,1.45412655E1,9.282925E1,7.3559033E2,3.050383E2,1.254317E1,7.583417E0,8.753444E0,5.787821E0,7.76666E1,1.5162646E1],"tree_param":{"num_deleted":"0","num_feature":"16","num_nodes":"17","size_leaf_vector":"1"}},{"base_weights":[4.0863143E-4,-4.980796E-1,6.6767275E-2,-5.933386E-1,-3.3871782E-1,-8.0228046E-2,-5.5544525E-1,-1.30131E0,-2.7614516E-1,-1.1416049E-2,-3.2809388E-2,-7.8016944E-2,-0E0,-1.5623606E-2,4.9614895E-2],"categories":[],"categories_nodes":[],"categories_segments":[],"categories_sizes":[],"default_left":[0,0,0,0,0,0,0,0,0,0,0,0,0,0,0],"id":12,"left_children":[1,3,-1,5,7,-1,9,11,13,-1,-1,-1,-1,-1,-1],"loss_changes":[1.0628254E3,1.6975555E1,0E0,2.577475E1,2.5299038E1,0E0,2.2474625E1,8.007107E0,1.904877E1,0E0,0E0,0E0,0E0,0E0,0E0],"parents":[2147483647,0,0,1,1,3,3,4,4,6,6,7,7,8,8],"right_children":[2,4,-1,6,8,-1,10,12,14,-1,-1,-1,-1,-1,-1],"split_conditions":[3E-1,7E-2,6.6767275E-2,4.4976E2,3E-2,-8.0228046E-2,2E-2,1E-1,1.347E3,-1.1416049E-2,-3.2809388E-2,-7.8016944E-2,-0E0,-1.5623606E-2,4.9614895E-2],"split_indices":[15,15,0,1,14,0,15,15,12,0,0,0,0,0,0],"split_type":[0,0,0,0,0,0,0,0,0,0,0,0,0,0,0],"sum_hessian":[1.5945236E3,1.1611738E3,4.3334976E2,7.2308606E2,4.380877E2,2.414749E1,6.989386E2,2.5043373E1,4.1304434E2,1.6650485E2,5.324337E2,2.0403074E1,4.640298E0,4.0266037E2,1.0383956E1],"tree_param":{"num_deleted":"0","num_feature":"16","num_nodes":"15","size_leaf_vector":"1"}},{"base_weights":[4.6070103E-4,-4.7594705E-1,6.546802E-2,-4.3603608E-1,-8.626715E-1,-4.5522398E-1,5.0030226E-1,-1.2346755E0,-2.828455E-1,-2.1361887E-2,-5.551522E-2,5.642101E-2,6.7998E-3,-2.758897E-2,-7.2123654E-2,2.7624903E-2,-3.900081E-2],"categories":[],"categories_nodes":[],"categories_segments":[],"categories_sizes":[],"default_left":[0,0,0,0,0,0,0,0,0,0,0,0,0,0,0,0,0],"id":13,"left_children":[1,3,-1,5,7,9,11,13,15,-1,-1,-1,-1,-1,-1,-1,-1],"loss_changes":[9.840315E2,1.6819763E1,0E0,1.9091843E1,2.1748459E1,1.7661362E1,4.0340543E0,7.250267E0,1.8501352E1,0E0,0E0,0E0,0E0,0E0,0E0,0E0,0E0],"parents":[2147483647,0,0,1,1,3,3,4,4,5,5,6,6,7,7,8,8],"right_children":[2,4,-1,6,8,10,12,14,16,-1,-1,-1,-1,-1,-1,-1,-1],"split_conditions":[3E-1,1.58887E3,6.546802E-2,6.74708E3,2.1E-1,5.28328E3,3E-2,1E0,1E0,-2.1361887E-2,-5.551522E-2,5.642101E-2,6.7998E-3,-2.758897E-2,-7.2123654E-2,2.7624903E-2,-3.900081E-2],"split_indices":[15,9,0,1,14,1,15,0,2,0,0,0,0,0,0,0,0],"split_type":[0,0,0,0,0,0,0,0,0,0,0,0,0,0,0,0,0],"sum_hessian":[1.5753934E3,1.1551876E3,4.202059E2,1.0502223E3,1.0496523E2,1.0301597E3,2.0062708E1,6.2728348E1,4.2236885E1,9.90269E2,3.989064E1,6.091E0,1.3971707E1,1.6048586E1,4.6679764E1,1.5342135E1,2.689475E1],"tree_param":{"num_deleted":"0","num_feature":"16","num_nodes":"17","size_leaf_vector":"1"}},{"base_weights":[5.7401456E-4,-4.5503893E-1,6.426503E-2,8.582216E-1,-4.654323E-1,7.259382E-2,-4.434098E-2,-5.599072E-1,-3.0795386E-1,-7.693734E-2,-2.6161397E-2,-6.1843246E-2,-1.2422069E-2],"categories":[],"categories_nodes":[],"categories_segments":[],"categories_sizes":[],"default_left":[0,0,0,0,0,0,0,0,0,0,0,0,0],"id":14,"left_children":[1,3,-1,5,7,-1,-1,9,11,-1,-1,-1,-1],"loss_changes":[9.1205237E2,1.5891846E1,0E0,1.0892864E1,1.6375626E1,0E0,0E0,2.3663177E1,2.2843414E1,0E0,0E0,0E0,0E0],"parents":[2147483647,0,0,1,1,3,3,4,4,7,7,8,8],"right_children":[2,4,-1,6,8,-1,-1,10,12,-1,-1,-1,-1],"split_conditions":[3E-1,1E1,6.426503E-2,2E0,7E-2,7.259382E-2,-4.434098E-2,4.4976E2,3E-2,-7.693734E-2,-2.6161397E-2,-6.1843246E-2,-1.2422069E-2],"split_indices":[15,12,0,0,15,0,0,1,14,0,0,0,0],"split_type":[0,0,0,0,0,0,0,0,0,0,0,0,0],"sum_hessian":[1.5554551E3,1.1484335E3,4.0702164E2,7.9992423E0,1.1404342E3,6.3078623E0,1.69138E0,7.0922394E2,4.3121027E2,2.3644833E1,6.855791E2,2.4265953E1,4.0694434E2],"tree_param":{"num_deleted":"0","num_feature":"16","num_nodes":"13","size_leaf_vector":"1"}},{"base_weights":[6.459629E-4,-4.3484795E-1,1.2629498E0,-3.9582375E-1,-8.1744486E-1,6.326497E-2,9.621435E-3,-4.143956E-1,4.9898854E-1,-1.1891239E0,-2.5050217E-1,-1.645832E-2,-3.093783E-2,4.096941E-2,-2.2295043E-4,-2.5721446E-2,-6.9921575E-2,2.0332692E-2,-4.264706E-2],"categories":[],"categories_nodes":[],"categories_segments":[],"categories_sizes":[],"default_left":[0,0,0,0,0,0,0,0,0,0,0,0,0,0,0,0,0,0,0],"id":15,"left_children":[1,3,5,7,9,-1,-1,11,13,15,17,-1,-1,-1,-1,-1,-1,-1,-1],"loss_changes":[8.460333E2,1.6141281E1,2.0935059E-2,1.745897E1,2.0835083E1,0E0,0E0,1.7099075E1,3.8092542E0,7.057106E0,1.7540112E1,0E0,0E0,0E0,0E0,0E0,0E0,0E0,0E0],"parents":[2147483647,0,0,1,1,2,2,3,3,4,4,7,7,8,8,9,9,10,10],"right_children":[2,4,6,8,10,-1,-1,12,14,16,18,-1,-1,-1,-1,-1,-1,-1,-1],"split_conditions":[3E-1,1.58887E3,3.03998E3,6.74708E3,2.1E-1,6.326497E-2,9.621435E-3,3.14278E3,2E0,1E0,2.91E2,-1.645832E-2,-3.093783E-2,4.096941E-2,-2.2295043E-4,-2.5721446E-2,-6.9921575E-2,2.0332692E-2,-4.264706E-2],"split_indices":[15,9,9,1,14,0,0,1,0,0,12,0,0,0,0,0,0,0,0],"split_type":[0,0,0,0,0,0,0,0,0,0,0,0,0,0,0,0,0,0,0],"sum_hessian":[1.536258E3,1.1423928E3,3.9386526E2,1.0396879E3,1.0270488E2,3.923551E2,1.5101559E0,1.0196213E3,2.00666E1,6.0839844E1,4.186504E1,7.231058E2,2.965155E2,1.2485981E1,7.580619E0,1.5789517E1,4.5050327E1,1.978169E1,2.208335E1],"tree_param":{"num_deleted":"0","num_feature":"16","num_nodes":"19","size_leaf_vector":"1"}},{"base_weights":[7.3686324E-4,-4.158888E-1,1.2421523E0,-3.7804344E-1,-7.9072523E-1,6.222566E-2,9.361115E-3,-3.958151E-1,4.775645E-1,2.7647695E-1,-9.7147745E-1,-1.8434903E-2,-5.2263927E-2,5.4858375E-2,5.9234323E-3,6.27137E-2,-5.8620013E-2,-6.0888972E-2,9.105971E-3],"categories":[],"categories_nodes":[],"categories_segments":[],"categories_sizes":[],"default_left":[0,0,0,0,0,0,0,0,0,0,0,0,0,0,0,0,0,0,0],"id":16,"left_children":[1,3,5,7,9,-1,-1,11,13,15,17,-1,-1,-1,-1,-1,-1,-1,-1],"loss_changes":[7.8568585E2,1.5238693E1,2.0751953E-3,1.58918915E1,2.0310108E1,0E0,0E0,1.6791138E1,3.923297E0,2.2995968E1,2.5723404E1,0E0,0E0,0E0,0E0,0E0,0E0,0E0,0E0],"parents":[2147483647,0,0,1,1,2,2,3,3,4,4,7,7,8,8,9,9,10,10],"right_children":[2,4,6,8,10,-1,-1,12,14,16,18,-1,-1,-1,-1,-1,-1,-1,-1],"split_conditions":[3E-1,1.58887E3,3.03998E3,6.74708E3,1.2E1,6.222566E-2,9.361115E-3,5.28328E3,3E-2,1.97E2,2.8E-1,-1.8434903E-2,-5.2263927E-2,5.4858375E-2,5.9234323E-3,6.27137E-2,-5.8620013E-2,-6.0888972E-2,9.105971E-3],"split_indices":[15,9,9,1,13,0,0,1,15,12,14,0,0,0,0,0,0,0,0],"split_type":[0,0,0,0,0,0,0,0,0,0,0,0,0,0,0,0,0,0,0],"sum_hessian":[1.5163004E3,1.1354872E3,3.8081332E2,1.0343922E3,1.0109493E2,3.7931076E2,1.5025496E0,1.0144432E3,1.994904E1,1.4165107E1,8.6929825E1,9.7602856E2,3.8414593E1,6.054514E0,1.3894526E1,8.743697E0,5.4214096E0,7.194647E1,1.498335E1],"tree_param":{"num_deleted":"0","num_feature":"16","num_nodes":"19","size_leaf_vector":"1"}},{"base_weights":[9.2649565E-4,-3.9764062E-1,6.1135728E-2,-4.871928E-1,-2.4902764E-1,-7.36518E-2,-4.509167E-1,-1.1744221E0,-1.906301E-1,-6.9714645E-3,-2.7386144E-2,-7.199569E-2,-0E0,-1.1309435E-2,5.1123954E-2],"categories":[],"categories_nodes":[],"categories_segments":[],"categories_sizes":[],"default_left":[0,0,0,0,0,0,0,0,0,0,0,0,0,0,0],"id":17,"left_children":[1,3,-1,5,7,-1,9,11,13,-1,-1,-1,-1,-1,-1],"loss_changes":[7.301169E2,1.4543747E1,0E0,2.3468521E1,2.2270449E1,0E0,2.0046402E1,7.837551E0,1.7308628E1,0E0,0E0,0E0,0E0,0E0,0E0],"parents":[2147483647,0,0,1,1,3,3,4,4,6,6,7,7,8,8],"right_children":[2,4,-1,6,8,-1,10,12,14,-1,-1,-1,-1,-1,-1],"split_conditions":[3E-1,7E-2,6.1135728E-2,4.4976E2,3E-2,-7.36518E-2,2E-2,1E-1,1.347E3,-6.9714645E-3,-2.7386144E-2,-7.199569E-2,-0E0,-1.1309435E-2,5.1123954E-2],"split_indices":[15,15,0,1,14,0,15,15,12,0,0,0,0,0,0],"split_type":[0,0,0,0,0,0,0,0,0,0,0,0,0,0,0],"sum_hessian":[1.496477E3,1.1285809E3,3.6789615E2,7.007036E2,4.2787723E2,2.2973873E1,6.777298E2,2.3755991E1,4.0412125E2,1.6249252E2,5.1523724E2,1.9248703E1,4.507287E0,3.938038E2,1.03174515E1],"tree_param":{"num_deleted":"0","num_feature":"16","num_nodes":"15","size_leaf_vector":"1"}},{"base_weights":[9.722367E-4,-3.8004053E-1,1.2044531E0,-3.4305027E-1,-7.519688E-1,6.0346384E-2,7.4510174E-3,-3.828908E-1,2.5716431E-2,-1.1218302E0,-2.0852539E-1,3.7957083E-2,-2.0129805E-2,1.4531559E-2,-5.454215E-2,-2.2349743E-2,-6.686657E-2,2.8497053E-2,-3.4354474E-2],"categories":[],"categories_nodes":[],"categories_segments":[],"categories_sizes":[],"default_left":[0,0,0,0,0,0,0,0,0,0,0,0,0,0,0,0,0,0,0],"id":18,"left_children":[1,3,5,7,9,-1,-1,11,13,15,17,-1,-1,-1,-1,-1,-1,-1,-1],"loss_changes":[6.7893555E2,1.4652756E1,7.2265625E-2,1.5247971E1,1.9115982E1,0E0,0E0,2.0974472E1,2.9394714E1,7.014122E0,1.6135107E1,0E0,0E0,0E0,0E0,0E0,0E0,0E0,0E0],"parents":[2147483647,0,0,1,1,2,2,3,3,4,4,7,7,8,8,9,9,10,10],"right_children":[2,4,6,8,10,-1,-1,12,14,16,18,-1,-1,-1,-1,-1,-1,-1,-1],"split_conditions":[3E-1,1.58887E3,3.03998E3,3.5702E2,2.1E-1,6.0346384E-2,7.4510174E-3,1.5E1,3E0,1E0,1E0,3.7957083E-2,-2.0129805E-2,1.4531559E-2,-5.454215E-2,-2.2349743E-2,-6.686657E-2,2.8497053E-2,-3.4354474E-2],"split_indices":[15,9,9,9,14,0,0,12,0,0,2,0,0,0,0,0,0,0,0],"split_type":[0,0,0,0,0,0,0,0,0,0,0,0,0,0,0,0,0,0,0],"sum_hessian":[1.477744E3,1.1226047E3,3.5513925E2,1.0240266E3,9.857818E1,3.5369272E2,1.4465119E0,9.253698E2,9.86568E1,5.7476177E1,4.1101997E1,1.4629168E1,9.1074066E2,8.069793E1,1.7958868E1,1.5217474E1,4.2258705E1,1.51774845E1,2.5924513E1],"tree_param":{"num_deleted":"0","num_feature":"16","num_nodes":"19","size_leaf_vector":"1"}},{"base_weights":[1.069544E-3,-3.6324838E-1,1.187318E0,-3.8202184E-1,2.9685098E-1,5.9491068E-2,7.248821E-3,-3.518091E-1,-1.1517459E0,-5.144456E-2,5.1683915E-1,-1.8156957E-2,4.8318207E-2,-6.646859E-2,4.606754E-2,4.2671934E-2,-6.937157E-3],"categories":[],"categories_nodes":[],"categories_segments":[],"categories_sizes":[],"default_left":[0,0,0,0,0,0,0,0,0,0,0,0,0,0,0,0,0],"id":19,"left_children":[1,3,5,7,9,-1,-1,11,13,-1,15,-1,-1,-1,-1,-1,-1],"loss_changes":[6.318438E2,1.4003937E1,5.670166E-2,2.4138687E1,9.237568E0,0E0,0E0,1.5711777E1,1.61647E1,0E0,6.509749E0,0E0,0E0,0E0,0E0,0E0,0E0],"parents":[2147483647,0,0,1,1,2,2,3,3,4,4,7,7,8,8,10,10],"right_children":[2,4,6,8,10,-1,-1,12,14,-1,16,-1,-1,-1,-1,-1,-1],"split_conditions":[3E-1,6.52775E3,3.03998E3,5.28328E3,3.72E2,5.9491068E-2,7.248821E-3,1.474E3,1E-1,-5.144456E-2,7.3E2,-1.8156957E-2,4.8318207E-2,-6.646859E-2,4.606754E-2,4.2671934E-2,-6.937157E-3],"split_indices":[15,1,9,1,12,0,0,12,15,0,12,0,0,0,0,0,0],"split_type":[0,0,0,0,0,0,0,0,0,0,0,0,0,0,0,0,0],"sum_hessian":[1.4590693E3,1.1164576E3,3.4261166E2,1.0867294E3,2.9728258E1,3.411711E2,1.4405655E0,1.0477119E3,3.9017532E1,3.3841364E0,2.6344122E1,1.0398777E3,7.834189E0,3.649088E1,2.526653E0,1.7711353E1,8.632768E0],"tree_param":{"num_deleted":"0","num_feature":"16","num_nodes":"17","size_leaf_vector":"1"}},{"base_weights":[1.2656145E-3,-3.471201E-1,1.1711605E0,-3.1113183E-1,-7.1419E-1,5.868488E-2,7.052041E-3,-3.3207646E-1,3.5917428E-1,3.202243E-1,-8.958364E-1,4.8649486E-2,-1.7183106E-2,8.506706E-2,-9.824875E-4,6.1670132E-2,-5.5223238E-2,-5.7340015E-2,1.0628572E-2],"categories":[],"categories_nodes":[],"categories_segments":[],"categories_sizes":[],"default_left":[0,0,0,0,0,0,0,0,0,0,0,0,0,0,0,0,0,0,0],"id":20,"left_children":[1,3,5,7,9,-1,-1,11,13,15,17,-1,-1,-1,-1,-1,-1,-1,-1],"loss_changes":[5.883368E2,1.3943954E1,4.2938232E-2,1.4355209E1,1.8838715E1,0E0,0E0,1.49199295E1,1.6387077E1,2.07398E1,2.3898384E1,0E0,0E0,0E0,0E0,0E0,0E0,0E0,0E0],"parents":[2147483647,0,0,1,1,2,2,3,3,4,4,7,7,8,8,9,9,10,10],"right_children":[2,4,6,8,10,-1,-1,12,14,16,18,-1,-1,-1,-1,-1,-1,-1,-1],"split_conditions":[3E-1,1.58887E3,3.03998E3,1.25056E3,1.2E1,5.868488E-2,7.052041E-3,1E1,1.45876E3,1.97E2,2.8E-1,4.8649486E-2,-1.7183106E-2,8.506706E-2,-9.824875E-4,6.1670132E-2,-5.5223238E-2,-5.7340015E-2,1.0628572E-2],"split_indices":[15,9,9,9,13,0,0,12,1,12,14,0,0,0,0,0,0,0,0],"split_type":[0,0,0,0,0,0,0,0,0,0,0,0,0,0,0,0,0,0,0],"sum_hessian":[1.4404984E3,1.1101732E3,3.3032516E2,1.0139712E3,9.6202034E1,3.288904E2,1.4347773E0,9.844609E2,2.9510277E1,1.3844851E1,8.2357185E1,7.552655E0,9.7690826E2,6.017861E0,2.3492416E1,8.732699E0,5.112151E0,6.749218E1,1.4865007E1],"tree_param":{"num_deleted":"0","num_feature":"16","num_nodes":"19","size_leaf_vector":"1"}},{"base_weights":[1.5124084E-3,-3.3161017E-1,1.155881E0,-4.1890827E-1,-1.8759014E-1,5.7922818E-2,6.8605365E-3,-7.025647E-2,-3.832052E-1,-1.1058673E0,-1.309324E-1,-2.844349E-2,-1.0765078E-2,-6.877278E-2,-0E0,7.941757E-3,-1.3641146E-2],"categories":[],"categories_nodes":[],"categories_segments":[],"categories_sizes":[],"default_left":[0,0,0,0,0,0,0,0,0,0,0,0,0,0,0,0,0],"id":21,"left_children":[1,3,5,7,9,-1,-1,-1,11,13,15,-1,-1,-1,-1,-1,-1],"loss_changes":[5.481159E2,1.3510788E1,3.0883789E-2,2.268692E1,2.1139732E1,0E0,0E0,0E0,2.0151459E1,7.531721E0,1.647116E1,0E0,0E0,0E0,0E0,0E0,0E0],"parents":[2147483647,0,0,1,1,2,2,3,3,4,4,8,8,9,9,10,10],"right_children":[2,4,6,8,10,-1,-1,-1,12,14,16,-1,-1,-1,-1,-1,-1],"split_conditions":[3E-1,7E-2,3.03998E3,4.4976E2,3E-2,5.7922818E-2,6.8605365E-3,-7.025647E-2,4.6E1,1E-1,2.9E1,-2.844349E-2,-1.0765078E-2,-6.877278E-2,-0E0,7.941757E-3,-1.3641146E-2],"split_indices":[15,15,9,1,14,0,0,0,13,15,13,0,0,0,0,0,0],"split_type":[0,0,0,0,0,0,0,0,0,0,0,0,0,0,0,0,0],"sum_hessian":[1.4222891E3,1.1039855E3,3.1830362E2,6.839979E2,4.199875E2,3.1687448E2,1.4291437E0,2.206757E1,6.6193036E2,2.281827E1,3.9716922E2,3.1179156E2,3.5013882E2,1.837762E1,4.4406486E0,1.293561E2,2.6781314E2],"tree_param":{"num_deleted":"0","num_feature":"16","num_nodes":"17","size_leaf_vector":"1"}},{"base_weights":[1.5084478E-3,-3.16911E-1,1.1413908E0,-2.817813E-1,-6.810461E-1,5.720043E-2,6.6741803E-3,-6.766781E-1,-2.444163E-1,-1.0553024E0,-1.5603317E-1,-7.391421E-2,-6.1050723E-3,-1.3329687E-2,2.0789485E-2,-1.8743884E-2,-6.4040884E-2,2.194305E-2,-3.647165E-2],"categories":[],"categories_nodes":[],"categories_segments":[],"categories_sizes":[],"default_left":[0,0,0,0,0,0,0,0,0,0,0,0,0,0,0,0,0,0,0],"id":22,"left_children":[1,3,5,7,9,-1,-1,11,13,15,17,-1,-1,-1,-1,-1,-1,-1,-1],"loss_changes":[5.11108E2,1.3391006E1,2.0080566E-2,1.4213264E1,1.7852837E1,0E0,0E0,3.689955E1,1.3528191E1,7.0708923E0,1.4510593E1,0E0,0E0,0E0,0E0,0E0,0E0,0E0,0E0],"parents":[2147483647,0,0,1,1,2,2,3,3,4,4,7,7,8,8,9,9,10,10],"right_children":[2,4,6,8,10,-1,-1,12,14,16,18,-1,-1,-1,-1,-1,-1,-1,-1],"split_conditions":[3E-1,1.58887E3,3.03998E3,1E1,2.1E-1,5.720043E-2,6.6741803E-3,4.71E2,1.25056E3,1E0,2.91E2,-7.391421E-2,-6.1050723E-3,-1.3329687E-2,2.0789485E-2,-1.8743884E-2,-6.4040884E-2,2.194305E-2,-3.647165E-2],"split_indices":[15,9,9,13,14,0,0,12,9,0,12,0,0,0,0,0,0,0,0],"split_type":[0,0,0,0,0,0,0,0,0,0,0,0,0,0,0,0,0,0,0],"sum_hessian":[1.4050311E3,1.0984648E3,3.0656638E2,1.0046853E3,9.37795E1,3.0514273E2,1.4236612E0,8.4209915E1,9.2047534E2,5.3604816E1,4.0174686E1,3.338573E1,5.0824184E1,8.918695E2,2.8605871E1,1.4558461E1,3.9046356E1,1.940496E1,2.0769728E1],"tree_param":{"num_deleted":"0","num_feature":"16","num_nodes":"19","size_leaf_vector":"1"}},{"base_weights":[1.484185E-3,-3.0294695E-1,1.1276096E0,-3.2133362E-1,3.3346552E-1,5.6513708E-2,6.492817E-3,-2.9187956E-1,-1.099278E0,-4.874621E-2,5.4249704E-1,-2.1665065E-2,-9.499373E-3,-6.419877E-2,4.604068E-2,3.429764E-2,-4.3608904E-2],"categories":[],"categories_nodes":[],"categories_segments":[],"categories_sizes":[],"default_left":[0,0,0,0,0,0,0,0,0,0,0,0,0,0,0,0,0],"id":23,"left_children":[1,3,5,7,9,-1,-1,11,13,-1,15,-1,-1,-1,-1,-1,-1],"loss_changes":[4.7690878E2,1.289991E1,1.0406494E-2,2.337133E1,8.6379175E0,0E0,0E0,1.4411896E1,1.5484573E1,0E0,6.0290613E0,0E0,0E0,0E0,0E0,0E0,0E0],"parents":[2147483647,0,0,1,1,2,2,3,3,4,4,7,7,8,8,10,10],"right_children":[2,4,6,8,10,-1,-1,12,14,-1,16,-1,-1,-1,-1,-1,-1],"split_conditions":[3E-1,6.52775E3,3.03998E3,5.28328E3,3.72E2,5.6513708E-2,6.492817E-3,5E-2,1E-1,-4.874621E-2,9.92E2,-2.1665065E-2,-9.499373E-3,-6.419877E-2,4.604068E-2,3.429764E-2,-4.3608904E-2],"split_indices":[15,1,9,1,12,0,0,15,15,0,12,0,0,0,0,0,0],"split_type":[0,0,0,0,0,0,0,0,0,0,0,0,0,0,0,0,0],"sum_hessian":[1.3879045E3,1.0927759E3,2.951286E2,1.0633357E3,2.9440216E1,2.937103E2,1.4183255E0,1.0264893E3,3.684637E1,3.221281E0,2.6218935E1,4.264442E2,6.000451E2,3.4320366E1,2.5260055E0,2.4593567E1,1.6253674E0],"tree_param":{"num_deleted":"0","num_feature":"16","num_nodes":"17","size_leaf_vector":"1"}},{"base_weights":[1.5324972E-3,-2.895332E-1,1.1144652E0,-2.5536352E-1,-6.489894E-1,5.585903E-2,6.316323E-3,-6.38668E-1,-2.1933709E-1,3.4846464E-1,-8.307783E-1,-7.161074E-2,-5.090134E-3,-1.157054E-2,4.9729373E-2,5.9916984E-2,-5.2441746E-2,-5.43784E-2,1.1876627E-2],"categories":[],"categories_nodes":[],"categories_segments":[],"categories_sizes":[],"default_left":[0,0,0,0,0,0,0,0,0,0,0,0,0,0,0,0,0,0,0],"id":24,"left_children":[1,3,5,7,9,-1,-1,11,13,15,17,-1,-1,-1,-1,-1,-1,-1,-1],"loss_changes":[4.451877E2,1.274588E1,1.8310547E-3,1.3191727E1,1.730885E1,0E0,0E0,3.4830193E1,1.3238892E1,1.8603949E1,2.235162E1,0E0,0E0,0E0,0E0,0E0,0E0,0E0,0E0],"parents":[2147483647,0,0,1,1,2,2,3,3,4,4,7,7,8,8,9,9,10,10],"right_children":[2,4,6,8,10,-1,-1,12,14,16,18,-1,-1,-1,-1,-1,-1,-1,-1],"split_conditions":[3E-1,1.58887E3,3.03998E3,1E1,1.2E1,5.585903E-2,6.316323E-3,4.71E2,1.474E3,1.97E2,2.8E-1,-7.161074E-2,-5.090134E-3,-1.157054E-2,4.9729373E-2,5.9916984E-2,-5.2441746E-2,-5.43784E-2,1.1876627E-2],"split_indices":[15,9,9,13,13,0,0,12,12,12,14,0,0,0,0,0,0,0,0],"split_type":[0,0,0,0,0,0,0,0,0,0,0,0,0,0,0,0,0,0,0],"sum_hessian":[1.371036E3,1.0870342E3,2.8400183E2,9.9550366E2,9.15305E1,2.825887E2,1.4131334E0,8.2898285E1,9.1260535E2,1.3544756E1,7.798575E1,3.2403385E1,5.0494896E1,9.048272E2,7.778167E0,8.733207E0,4.811549E0,6.3235775E1,1.4749972E1],"tree_param":{"num_deleted":"0","num_feature":"16","num_nodes":"19","size_leaf_vector":"1"}},{"base_weights":[1.5968565E-3,-2.7668315E-1,5.509465E-2,-2.4366035E-1,-6.2935644E-1,-2.804613E-1,9.0552025E-2,-1.0045991E0,-1.2451209E-1,3.9508954E-2,-1.4977877E-2,1.7119693E-2,-5.0053038E-2,-6.257018E-2,-1.6423723E-2,2.9925177E-2,-2.9479532E-2],"categories":[],"categories_nodes":[],"categories_segments":[],"categories_sizes":[],"default_left":[0,0,0,0,0,0,0,0,0,0,0,0,0,0,0,0,0],"id":25,"left_children":[1,3,-1,5,7,9,11,13,15,-1,-1,-1,-1,-1,-1,-1,-1],"loss_changes":[4.15773E2,1.2015495E1,0E0,1.23288E1,1.6500359E1,1.8305077E1,2.6918053E1,7.3665504E0,1.3932968E1,0E0,0E0,0E0,0E0,0E0,0E0,0E0,0E0],"parents":[2147483647,0,0,1,1,3,3,4,4,5,5,6,6,7,7,8,8],"right_children":[2,4,-1,6,8,10,12,14,16,-1,-1,-1,-1,-1,-1,-1,-1],"split_conditions":[3E-1,1.58887E3,5.509465E-2,3.5702E2,2.1E-1,1.5E1,3E0,8E-2,1E0,3.9508954E-2,-1.4977877E-2,1.7119693E-2,-5.0053038E-2,-6.257018E-2,-1.6423723E-2,2.9925177E-2,-2.9479532E-2],"split_indices":[15,9,0,9,14,12,0,15,2,0,0,0,0,0,0,0,0],"split_type":[0,0,0,0,0,0,0,0,0,0,0,0,0,0,0,0,0],"sum_hessian":[1.3545471E3,1.0813523E3,2.7319476E2,9.9161084E2,8.974153E1,8.947451E2,9.6865715E1,5.0342464E1,3.9399067E1,1.4512837E1,8.8023224E2,7.9637276E1,1.7228434E1,3.5715103E1,1.4627362E1,1.488959E1,2.4509476E1],"tree_param":{"num_deleted":"0","num_feature":"16","num_nodes":"17","size_leaf_vector":"1"}},{"base_weights":[1.6260621E-3,-2.6433128E-1,1.0897684E0,-2.823054E-1,3.5182628E-1,5.4634582E-2,4.6440144E-3,-2.538169E-1,-1.0605506E0,-4.663253E-2,5.5046684E-1,-1.9537738E-2,-7.7840253E-3,-6.255774E-2,4.496968E-2,3.4307633E-2,-4.468228E-2],"categories":[],"categories_nodes":[],"categories_segments":[],"categories_sizes":[],"default_left":[0,0,0,0,0,0,0,0,0,0,0,0,0,0,0,0,0],"id":26,"left_children":[1,3,5,7,9,-1,-1,11,13,-1,15,-1,-1,-1,-1,-1,-1],"loss_changes":[3.8841864E2,1.1992546E1,7.4157715E-2,2.2305489E1,8.02387E0,0E0,0E0,1.3276268E1,1.4775444E1,0E0,5.82108E0,0E0,0E0,0E0,0E0,0E0,0E0],"parents":[2147483647,0,0,1,1,2,2,3,3,4,4,7,7,8,8,10,10],"right_children":[2,4,6,8,10,-1,-1,12,14,-1,16,-1,-1,-1,-1,-1,-1],"split_conditions":[3E-1,6.52775E3,3.03998E3,5.28328E3,3.72E2,5.4634582E-2,4.6440144E-3,5E-2,1E-1,-4.663253E-2,2E0,-1.9537738E-2,-7.7840253E-3,-6.255774E-2,4.496968E-2,3.4307633E-2,-4.468228E-2],"split_indices":[15,1,9,1,12,0,0,15,15,0,3,0,0,0,0,0,0],"split_type":[0,0,0,0,0,0,0,0,0,0,0,0,0,0,0,0,0],"sum_hessian":[1.3387323E3,1.0760323E3,2.6269992E2,1.0468479E3,2.9184565E1,2.6133594E2,1.3639996E0,1.01177924E3,3.5068615E1,3.076782E0,2.6107782E1,4.190155E2,5.9276373E2,3.252255E1,2.546064E0,2.4661715E1,1.4460678E0],"tree_param":{"num_deleted":"0","num_feature":"16","num_nodes":"17","size_leaf_vector":"1"}},{"base_weights":[1.6516778E-3,-2.525625E-1,1.0781647E0,-2.205149E-1,-5.998046E-1,1.0883366E0,5.176651E-1,-5.934935E-1,-1.8574591E-1,-1.2529492E-1,-9.9836195E-1,5.457284E-2,4.5173303E-3,4.2001396E-2,-2.166338E-3,-6.927453E-2,-3.5981813E-3,-9.870454E-3,4.8045263E-2,4.51863E-2,-2.4067132E-2,3.9776724E-2,-6.3818425E-2],"categories":[],"categories_nodes":[],"categories_segments":[],"categories_sizes":[],"default_left":[0,0,0,0,0,0,0,0,0,0,0,0,0,0,0,0,0,0,0,0,0,0,0],"id":27,"left_children":[1,3,5,7,9,11,13,15,17,19,21,-1,-1,-1,-1,-1,-1,-1,-1,-1,-1,-1,-1],"loss_changes":[3.630929E2,1.1384071E1,7.91626E-2,1.22617E1,1.6079407E1,8.03833E-2,1.7553716E0,3.313709E1,1.1882166E1,1.5680427E1,2.4928532E1,0E0,0E0,0E0,0E0,0E0,0E0,0E0,0E0,0E0,0E0,0E0,0E0],"parents":[2147483647,0,0,1,1,2,2,3,3,4,4,5,5,6,6,7,7,8,8,9,9,10,10],"right_children":[2,4,6,8,10,12,14,16,18,20,22,-1,-1,-1,-1,-1,-1,-1,-1,-1,-1,-1,-1],"split_conditions":[3E-1,1.58887E3,5.6237E3,1E1,3.21E2,3.03998E3,1E0,4.71E2,1.474E3,1.2E1,1E0,5.457284E-2,4.5173303E-3,4.2001396E-2,-2.166338E-3,-6.927453E-2,-3.5981813E-3,-9.870454E-3,4.8045263E-2,4.51863E-2,-2.4067132E-2,3.9776724E-2,-6.3818425E-2],"split_indices":[15,9,1,13,12,9,10,12,12,13,7,0,0,0,0,0,0,0,0,0,0,0,0],"split_type":[0,0,0,0,0,0,0,0,0,0,0,0,0,0,0,0,0,0,0,0,0,0,0],"sum_hessian":[1.3232759E3,1.0707285E3,2.5254729E2,9.830738E2,8.765475E1,2.4624467E2,6.3026123E0,8.123099E1,9.0184283E2,4.118733E1,4.6467422E1,2.4488438E2,1.3602855E0,4.252741E0,2.0498717E0,3.1214E1,5.0016987E1,8.9401324E2,7.8295503E0,9.831265E0,3.1356064E1,5.7438607E0,4.072356E1],"tree_param":{"num_deleted":"0","num_feature":"16","num_nodes":"23","size_leaf_vector":"1"}},{"base_weights":[1.7472191E-3,-2.4123947E-1,1.0670094E0,8.57202E-1,-2.507979E-1,1.077454E0,5.0288135E-1,1.408985E0,-4.0917072E-2,-3.8113293E-1,-1.5767084E-1,5.4032434E-2,4.394052E-3,-3.3639006E-3,4.162629E-2,2.5715275E-2,8.643656E-2,-6.446718E-2,-1.3026117E-2,-5.313329E-2,-6.055753E-3],"categories":[],"categories_nodes":[],"categories_segments":[],"categories_sizes":[],"default_left":[0,0,0,0,0,0,0,0,0,0,0,0,0,0,0,0,0,0,0,0,0],"id":28,"left_children":[1,3,5,7,9,11,13,15,-1,17,19,-1,-1,-1,-1,-1,-1,-1,-1,-1,-1],"loss_changes":[3.395845E2,1.111021E1,1.0421753E-1,9.747179E0,1.2519539E1,7.180786E-2,1.7874318E0,9.039879E-2,0E0,4.689241E1,1.9836308E1,0E0,0E0,0E0,0E0,0E0,0E0,0E0,0E0,0E0,0E0],"parents":[2147483647,0,0,1,1,2,2,3,3,4,4,5,5,6,6,7,7,9,9,10,10],"right_children":[2,4,6,8,10,12,14,16,-1,18,20,-1,-1,-1,-1,-1,-1,-1,-1,-1,-1],"split_conditions":[3E-1,1E1,5.6237E3,2E0,5E-2,3.03998E3,3.4E-1,2E0,-4.0917072E-2,1.36E2,2E-2,5.4032434E-2,4.394052E-3,-3.3639006E-3,4.162629E-2,2.5715275E-2,8.643656E-2,-6.446718E-2,-1.3026117E-2,-5.313329E-2,-6.055753E-3],"split_indices":[15,12,1,0,15,9,15,2,0,12,14,0,0,0,0,0,0,0,0,0,0],"split_type":[0,0,0,0,0,0,0,0,0,0,0,0,0,0,0,0,0,0,0,0,0],"sum_hessian":[1.308335E3,1.06558E3,2.4275499E2,7.976202E0,1.0576038E3,2.3657861E2,6.176367E0,6.344392E0,1.6318104E0,4.372264E2,6.203774E2,2.3522194E2,1.3566725E0,1.9986265E0,4.1777406E0,2.7689195E0,3.5754724E0,4.9634876E1,3.8759152E2,2.2465351E1,5.9791205E2],"tree_param":{"num_deleted":"0","num_feature":"16","num_nodes":"21","size_leaf_vector":"1"}},{"base_weights":[1.808975E-3,-2.3031317E-1,1.0562208E0,-2.0810287E-1,-7.257003E-1,1.0669569E0,4.88258E-1,-2.2057922E-1,7.6935697E-1,6.22675E-1,-1.0773493E0,5.35115E-2,4.2741126E-3,4.0982928E-2,-3.2699963E-3,-1.0064559E-2,-4.8803046E-2,7.548546E-2,-4.4821616E-2,6.2747926E-2,-3.9070945E-2,-6.301032E-2,4.7483273E-2],"categories":[],"categories_nodes":[],"categories_segments":[],"categories_sizes":[],"default_left":[0,0,0,0,0,0,0,0,0,0,0,0,0,0,0,0,0,0,0,0,0,0,0],"id":29,"left_children":[1,3,5,7,9,11,13,15,17,19,21,-1,-1,-1,-1,-1,-1,-1,-1,-1,-1,-1,-1],"loss_changes":[3.177093E2,1.1068199E1,1.3009644E-1,1.2321011E1,2.1859444E1,6.384277E-2,1.7250834E0,1.3893673E1,1.7148893E1,9.637119E0,1.4593182E1,0E0,0E0,0E0,0E0,0E0,0E0,0E0,0E0,0E0,0E0,0E0,0E0],"parents":[2147483647,0,0,1,1,2,2,3,3,4,4,5,5,6,6,7,7,8,8,9,9,10,10],"right_children":[2,4,6,8,10,12,14,16,18,20,22,-1,-1,-1,-1,-1,-1,-1,-1,-1,-1,-1,-1],"split_conditions":[3E-1,2.59015E3,5.6237E3,2.38998E3,1.2E1,3.03998E3,1E0,1.77013E3,3.21E2,1.97E2,7.27341E3,5.35115E-2,4.2741126E-3,4.0982928E-2,-3.2699963E-3,-1.0064559E-2,-4.8803046E-2,7.548546E-2,-4.4821616E-2,6.2747926E-2,-3.9070945E-2,-6.301032E-2,4.7483273E-2],"split_indices":[15,9,1,9,13,9,10,9,12,12,9,0,0,0,0,0,0,0,0,0,0,0,0],"split_type":[0,0,0,0,0,0,0,0,0,0,0,0,0,0,0,0,0,0,0,0,0,0,0],"sum_hessian":[1.2944037E3,1.0611136E3,2.3329015E2,1.01790594E3,4.3207653E1,2.2723581E2,6.0543413E0,1.00634674E3,1.1559206E1,8.483937E0,3.4723717E1,2.2588264E2,1.3531591E0,4.051748E0,2.0025938E0,9.831738E2,2.3172935E1,8.275191E0,3.284015E0,6.1684933E0,2.3154445E0,3.2423733E1,2.299983E0],"tree_param":{"num_deleted":"0","num_feature":"16","num_nodes":"23","size_leaf_vector":"1"}},{"base_weights":[1.9123066E-3,-2.199081E-1,1.045761E0,-1.4828691E-1,-3.6562625E-1,1.0568037E0,4.7392786E-1,-6.550473E-1,-1.0177284E-1,-4.3511325E-1,3.631341E-1,5.3007957E-2,4.1574077E-3,-4.409941E-3,4.0628396E-2,-6.553869E-2,-1.1883186E-2,-6.9898167E-3,2.7716158E-2,-1.8065145E-2,-5.101315E-2,-4.4485833E-2,2.7481282E-2],"categories":[],"categories_nodes":[],"categories_segments":[],"categories_sizes":[],"default_left":[0,0,0,0,0,0,0,0,0,0,0,0,0,0,0,0,0,0,0,0,0,0,0],"id":30,"left_children":[1,3,5,7,9,11,13,15,17,19,21,-1,-1,-1,-1,-1,-1,-1,-1,-1,-1,-1,-1],"loss_changes":[2.9735358E2,1.0723099E1,1.5551758E-1,1.635783E1,1.768626E1,5.6396484E-2,1.7542605E0,1.501866E1,1.6210722E1,1.2607681E1,7.325556E0,0E0,0E0,0E0,0E0,0E0,0E0,0E0,0E0,0E0,0E0,0E0,0E0],"parents":[2147483647,0,0,1,1,2,2,3,3,4,4,5,5,6,6,7,7,8,8,9,9,10,10],"right_children":[2,4,6,8,10,12,14,16,18,20,22,-1,-1,-1,-1,-1,-1,-1,-1,-1,-1,-1,-1],"split_conditions":[3E-1,3.14278E3,5.6237E3,2E0,6.52775E3,3.03998E3,3.4E-1,5E-2,2.98617E3,5.28328E3,3.72E2,5.3007957E-2,4.1574077E-3,-4.409941E-3,4.0628396E-2,-6.553869E-2,-1.1883186E-2,-6.9898167E-3,2.7716158E-2,-1.8065145E-2,-5.101315E-2,-4.4485833E-2,2.7481282E-2],"split_indices":[15,1,1,5,1,9,15,15,1,1,12,0,0,0,0,0,0,0,0,0,0,0,0],"split_type":[0,0,0,0,0,0,0,0,0,0,0,0,0,0,0,0,0,0,0,0,0,0,0],"sum_hessian":[1.2804279E3,1.0562767E3,2.2415108E2,7.1184863E2,3.444282E2,2.1821465E2,5.9364266E0,5.784189E1,6.540067E2,3.1544012E2,2.8988049E1,2.168649E2,1.3497418E0,1.9547269E0,3.9816997E0,2.1199005E1,3.6642883E1,6.196447E2,3.436198E1,2.823026E2,3.3137516E1,2.9199452E0,2.6068102E1],"tree_param":{"num_deleted":"0","num_feature":"16","num_nodes":"23","size_leaf_vector":"1"}},{"base_weights":[1.8658412E-3,-2.1015492E-1,1.0355884E0,-1.8891121E-1,-6.9640887E-1,1.0469562E0,4.5975456E-1,-3.056437E-1,-8.323024E-2,6.142519E-1,-1.0500724E0,5.2519888E-2,4.0438673E-3,4.000623E-2,-4.3010297E-3,-1.2594268E-2,-5.8519054E-2,-5.332652E-3,8.1541084E-2,6.092595E-2,-3.781791E-2,-6.177053E-2,4.4508483E-2],"categories":[],"categories_nodes":[],"categories_segments":[],"categories_sizes":[],"default_left":[0,0,0,0,0,0,0,0,0,0,0,0,0,0,0,0,0,0,0,0,0,0,0],"id":31,"left_children":[1,3,5,7,9,11,13,15,17,19,21,-1,-1,-1,-1,-1,-1,-1,-1,-1,-1,-1,-1],"loss_changes":[2.7848254E2,1.0296989E1,1.8141174E-1,1.2248676E1,2.0653944E1,4.9346924E-2,1.6932675E0,2.1197266E1,2.0854397E1,8.94065E0,1.360405E1,0E0,0E0,0E0,0E0,0E0,0E0,0E0,0E0,0E0,0E0,0E0,0E0],"parents":[2147483647,0,0,1,1,2,2,3,3,4,4,5,5,6,6,7,7,8,8,9,9,10,10],"right_children":[2,4,6,8,10,12,14,16,18,20,22,-1,-1,-1,-1,-1,-1,-1,-1,-1,-1,-1,-1],"split_conditions":[3E-1,2.59015E3,5.6237E3,4.5E1,1.2E1,3.03998E3,1E0,4.2E1,1.474E3,1.97E2,7.27341E3,5.2519888E-2,4.0438673E-3,4.000623E-2,-4.3010297E-3,-1.2594268E-2,-5.8519054E-2,-5.332652E-3,8.1541084E-2,6.092595E-2,-3.781791E-2,-6.177053E-2,4.4508483E-2],"split_indices":[15,9,1,13,13,9,10,13,12,12,9,0,0,0,0,0,0,0,0,0,0,0,0],"split_type":[0,0,0,0,0,0,0,0,0,0,0,0,0,0,0,0,0,0,0,0,0,0,0],"sum_hessian":[1.2667437E3,1.0514084E3,2.1533519E2,1.0097124E3,4.169604E1,2.0951268E2,5.822515E0,4.7662326E2,5.330892E2,8.40328E0,3.3292763E1,2.0816626E2,1.3464187E0,3.8632886E0,1.9592266E0,4.504872E2,2.6136051E1,5.271155E2,5.9736342E0,6.162263E0,2.2410173E0,3.0956654E1,2.3361084E0],"tree_param":{"num_deleted":"0","num_feature":"16","num_nodes":"23","size_leaf_vector":"1"}},{"base_weights":[1.977706E-3,-2.0055756E-1,1.025671E0,8.499847E-1,-2.099047E-1,1.0373781E0,4.4586718E-1,6.8894036E-2,-3.9024714E-2,-3.3560824E-1,-1.2068394E-1,7.0060766E-1,1.062253E0,-5.3844946E-3,3.9670285E-2,-6.1973322E-2,-1.0907664E-2,-5.069947E-2,-4.2673848E-3,-0E0,4.070423E-2,5.331489E-2,3.9334055E-3],"categories":[],"categories_nodes":[],"categories_segments":[],"categories_sizes":[],"default_left":[0,0,0,0,0,0,0,0,0,0,0,0,0,0,0,0,0,0,0,0,0,0,0],"id":32,"left_children":[1,3,5,7,9,11,13,-1,-1,15,17,19,21,-1,-1,-1,-1,-1,-1,-1,-1,-1,-1],"loss_changes":[2.6079614E2,1.0149628E1,2.06604E-1,9.093862E0,1.1396076E1,6.758118E-2,1.7196735E0,0E0,0E0,4.453089E1,1.8688381E1,1.1040993E0,7.925415E-2,0E0,0E0,0E0,0E0,0E0,0E0,0E0,0E0,0E0,0E0],"parents":[2147483647,0,0,1,1,2,2,3,3,4,4,5,5,6,6,9,9,10,10,11,11,12,12],"right_children":[2,4,6,8,10,12,14,-1,-1,16,18,20,22,-1,-1,-1,-1,-1,-1,-1,-1,-1,-1],"split_conditions":[3E-1,1E1,5.6237E3,2E0,5E-2,9.2E1,3.4E-1,6.8894036E-2,-3.9024714E-2,1.36E2,2E-2,3.3E-1,3.03998E3,-5.3844946E-3,3.9670285E-2,-6.1973322E-2,-1.0907664E-2,-5.069947E-2,-4.2673848E-3,-0E0,4.070423E-2,5.331489E-2,3.9334055E-3],"split_indices":[15,12,1,0,15,12,15,0,0,12,14,15,9,0,0,0,0,0,0,0,0,0,0],"split_type":[0,0,0,0,0,0,0,0,0,0,0,0,0,0,0,0,0,0,0,0,0,0,0],"sum_hessian":[1.2538733E3,1.0470354E3,2.068378E2,7.9689007E0,1.0390665E3,2.0112526E2,5.712539E0,6.368552E0,1.6003485E0,4.2787122E2,6.111953E2,1.7222578E1,1.8390268E2,1.9145312E0,3.7980077E0,4.7618683E1,3.8025253E2,2.166465E1,5.895307E2,3.0601223E0,1.41624565E1,1.825595E2,1.3431871E0],"tree_param":{"num_deleted":"0","num_feature":"16","num_nodes":"23","size_leaf_vector":"1"}},{"base_weights":[2.0244375E-3,-1.914743E-1,1.0160615E0,-9.325895E-1,-1.7763786E-1,1.0281241E0,4.32135E-1,-6.51354E-2,7.219207E-1,-1.0065845E-1,-3.3211958E-1,6.8639123E-1,1.053756E0,3.9067425E-2,-5.2615865E-3,7.885283E-2,-2.4952756E-2,-2.9726362E-2,-2.8141623E-3,-3.483105E-2,-9.6435575E-3,-0E0,4.0018745E-2,5.289604E-2,3.8259358E-3],"categories":[],"categories_nodes":[],"categories_segments":[],"categories_sizes":[],"default_left":[0,0,0,0,0,0,0,0,0,0,0,0,0,0,0,0,0,0,0,0,0,0,0,0,0],"id":33,"left_children":[1,3,5,7,9,11,13,-1,15,17,19,21,23,-1,-1,-1,-1,-1,-1,-1,-1,-1,-1,-1,-1],"loss_changes":[2.444649E2,9.985714E0,2.323761E-1,1.2399168E1,1.196138E1,1.0694885E-1,1.6599982E0,0E0,5.2210875E0,1.4739492E1,1.6622936E1,1.0517092E0,7.362366E-2,0E0,0E0,0E0,0E0,0E0,0E0,0E0,0E0,0E0,0E0,0E0,0E0],"parents":[2147483647,0,0,1,1,2,2,3,3,4,4,5,5,6,6,8,8,9,9,10,10,11,11,12,12],"right_children":[2,4,6,8,10,12,14,-1,16,18,20,22,24,-1,-1,-1,-1,-1,-1,-1,-1,-1,-1,-1,-1],"split_conditions":[3E-1,3.561E2,5.6237E3,2E0,3.14278E3,9.2E1,1E0,-6.51354E-2,1E0,2E0,3.7066E3,3.3E-1,3.03998E3,3.9067425E-2,-5.2615865E-3,7.885283E-2,-2.4952756E-2,-2.9726362E-2,-2.8141623E-3,-3.483105E-2,-9.6435575E-3,-0E0,4.0018745E-2,5.289604E-2,3.8259358E-3],"split_indices":[15,1,1,3,1,12,10,0,2,5,1,15,9,0,0,0,0,0,0,0,0,0,0,0,0],"split_type":[0,0,0,0,0,0,0,0,0,0,0,0,0,0,0,0,0,0,0,0,0,0,0,0,0],"sum_hessian":[1.2418112E3,1.0430872E3,1.9872398E2,1.7238026E1,1.0258491E3,1.9311765E2,5.6063385E0,1.4507496E1,2.73053E0,6.8793445E2,3.379147E2,1.677351E1,1.7634415E2,3.6868384E0,1.9194999E0,1.6751653E0,1.0553648E0,5.476526E1,6.331692E2,9.130865E1,2.4660605E2,3.0601223E0,1.3713388E1,1.750041E2,1.3400444E0],"tree_param":{"num_deleted":"0","num_feature":"16","num_nodes":"25","size_leaf_vector":"1"}},{"base_weights":[2.0552485E-3,-1.8279982E-1,1.0066537E0,4.9428407E-2,-2.2385474E-1,1.0190856E0,4.1868377E-1,5.040867E-1,-3.9282945E-1,-4.8837474E-1,-1.04101375E-1,6.7232656E-1,1.0455126E0,-6.2897787E-3,3.874838E-2,-5.3089976E-2,3.165273E-2,-4.7872555E-2,1.211913E-3,-6.271068E-2,-1.6511302E-2,-3.863036E-2,-2.9925487E-3,-0E0,3.933705E-2,5.2490145E-2,3.7213701E-3],"categories":[],"categories_nodes":[],"categories_segments":[],"categories_sizes":[],"default_left":[0,0,0,0,0,0,0,0,0,0,0,0,0,0,0,0,0,0,0,0,0,0,0,0,0,0,0],"id":34,"left_children":[1,3,5,7,9,11,13,15,17,19,21,23,25,-1,-1,-1,-1,-1,-1,-1,-1,-1,-1,-1,-1,-1,-1],"loss_changes":[2.2923256E2,1.00163E1,2.5724792E-1,3.1474203E1,2.7718876E1,1.4637756E-1,1.683757E0,1.6120123E1,1.9025234E1,3.2044563E1,1.765518E1,1.0009375E0,6.826782E-2,0E0,0E0,0E0,0E0,0E0,0E0,0E0,0E0,0E0,0E0,0E0,0E0,0E0,0E0],"parents":[2147483647,0,0,1,1,2,2,3,3,4,4,5,5,6,6,7,7,8,8,9,9,10,10,11,11,12,12],"right_children":[2,4,6,8,10,12,14,16,18,20,22,24,26,-1,-1,-1,-1,-1,-1,-1,-1,-1,-1,-1,-1,-1,-1],"split_conditions":[3E-1,2E-2,5.6237E3,1.4E-1,5E-2,9.2E1,3.4E-1,3E0,2.2E-1,1.02564E3,3E-2,3.3E-1,3.03998E3,-6.2897787E-3,3.874838E-2,-5.3089976E-2,3.165273E-2,-4.7872555E-2,1.211913E-3,-6.271068E-2,-1.6511302E-2,-3.863036E-2,-2.9925487E-3,-0E0,3.933705E-2,5.2490145E-2,3.7213701E-3],"split_indices":[15,15,1,14,15,12,15,5,14,1,14,15,9,0,0,0,0,0,0,0,0,0,0,0,0,0,0],"split_type":[0,0,0,0,0,0,0,0,0,0,0,0,0,0,0,0,0,0,0,0,0,0,0,0,0,0,0],"sum_hessian":[1.230181E3,1.039267E3,1.9091405E2,1.5426727E2,8.849997E2,1.8541017E2,5.503885E0,7.655575E1,7.7711525E1,2.735372E2,6.1146246E2,1.634194E1,1.6906822E2,1.8777785E0,3.6261065E0,4.9800196E0,7.157573E1,3.2974365E1,4.4737164E1,4.5090965E1,2.2844624E2,3.6238346E1,5.752241E2,3.0601223E0,1.3281818E1,1.6773125E2,1.336988E0],"tree_param":{"num_deleted":"0","num_feature":"16","num_nodes":"27","size_leaf_vector":"1"}},{"base_weights":[1.9840007E-3,-1.7461772E-1,9.974162E-1,-1.5410931E-1,-6.574705E-1,1.010235E0,4.0538794E-1,-1.66318E-1,7.906703E-1,6.130178E-1,-1.0156544E0,6.584103E-1,1.0374947E0,3.8163316E-2,-6.153883E-3,-7.3949434E-3,-4.590045E-2,7.3868826E-2,-4.2411286E-2,5.94501E-2,-3.6385782E-2,-6.040225E-2,4.403391E-2,-0E0,3.8658705E-2,5.2095797E-2,3.6196455E-3],"categories":[],"categories_nodes":[],"categories_segments":[],"categories_sizes":[],"default_left":[0,0,0,0,0,0,0,0,0,0,0,0,0,0,0,0,0,0,0,0,0,0,0,0,0,0,0],"id":35,"left_children":[1,3,5,7,9,11,13,15,17,19,21,23,25,-1,-1,-1,-1,-1,-1,-1,-1,-1,-1,-1,-1,-1,-1],"loss_changes":[2.1505232E2,9.757664E0,2.821045E-1,1.1315157E1,1.9451628E1,1.8563843E-1,1.6253859E0,1.2972956E1,1.54848385E1,8.292366E0,1.3126678E1,9.5173454E-1,6.323242E-2,0E0,0E0,0E0,0E0,0E0,0E0,0E0,0E0,0E0,0E0,0E0,0E0,0E0,0E0],"parents":[2147483647,0,0,1,1,2,2,3,3,4,4,5,5,6,6,7,7,8,8,9,9,10,10,11,11,12,12],"right_children":[2,4,6,8,10,12,14,16,18,20,22,24,26,-1,-1,-1,-1,-1,-1,-1,-1,-1,-1,-1,-1,-1,-1],"split_conditions":[3E-1,2.59015E3,5.6237E3,2.38998E3,1.2E1,9.2E1,1E0,1.77013E3,3.21E2,1.97E2,7.27341E3,3.3E-1,3.03998E3,3.8163316E-2,-6.153883E-3,-7.3949434E-3,-4.590045E-2,7.3868826E-2,-4.2411286E-2,5.94501E-2,-3.6385782E-2,-6.040225E-2,4.403391E-2,-0E0,3.8658705E-2,5.2095797E-2,3.6196455E-3],"split_indices":[15,9,1,9,13,12,10,9,12,12,9,15,9,0,0,0,0,0,0,0,0,0,0,0,0,0,0],"split_type":[0,0,0,0,0,0,0,0,0,0,0,0,0,0,0,0,0,0,0,0,0,0,0,0,0,0,0],"sum_hessian":[1.2189818E3,1.0355797E3,1.834021E2,9.9564594E2,3.9933823E1,1.7799712E2,5.4049788E0,9.8427997E2,1.1365933E1,8.318936E0,3.1614887E1,1.5927403E1,1.6206972E2,3.5218208E0,1.883158E0,9.6255585E2,2.172415E1,8.29424E0,3.0716934E0,6.159075E0,2.1598616E0,2.9271774E1,2.3431141E0,3.0601223E0,1.2867282E1,1.607357E2,1.3340162E0],"tree_param":{"num_deleted":"0","num_feature":"16","num_nodes":"27","size_leaf_vector":"1"}},{"base_weights":[2.1174618E-3,-1.6663231E-1,9.883261E-1,-1.833977E-1,3.870082E-1,1.0015448E0,3.9236978E-1,-1.5653469E-1,-9.768939E-1,-4.2093582E-2,5.606578E-1,6.4463854E-1,1.0296748E0,-7.1281167E-3,3.785981E-2,-1.1337658E-2,-3.4297394E-4,-5.9510507E-2,4.9792398E-2,3.479641E-2,-4.0286485E-2,-0E0,3.798324E-2,5.232812E-2,2.534896E-2],"categories":[],"categories_nodes":[],"categories_segments":[],"categories_sizes":[],"default_left":[0,0,0,0,0,0,0,0,0,0,0,0,0,0,0,0,0,0,0,0,0,0,0,0,0],"id":36,"left_children":[1,3,5,7,9,11,13,15,17,-1,19,21,23,-1,-1,-1,-1,-1,-1,-1,-1,-1,-1,-1,-1],"loss_changes":[2.0173259E2,9.553131E0,3.058777E-1,2.0675766E1,6.689094E0,2.2460938E-1,1.646634E0,1.0104382E1,1.4777052E1,0E0,5.507593E0,9.040508E-1,7.270813E-2,0E0,0E0,0E0,0E0,0E0,0E0,0E0,0E0,0E0,0E0,0E0,0E0],"parents":[2147483647,0,0,1,1,2,2,3,3,4,4,5,5,6,6,7,7,8,8,10,10,11,11,12,12],"right_children":[2,4,6,8,10,12,14,16,18,-1,20,22,24,-1,-1,-1,-1,-1,-1,-1,-1,-1,-1,-1,-1],"split_conditions":[3E-1,6.52775E3,5.6237E3,5.28328E3,3.72E2,9.2E1,3.4E-1,6.8E1,1E-1,-4.2093582E-2,9.92E2,3.3E-1,5.9E-1,-7.1281167E-3,3.785981E-2,-1.1337658E-2,-3.4297394E-4,-5.9510507E-2,4.9792398E-2,3.479641E-2,-4.0286485E-2,-0E0,3.798324E-2,5.232812E-2,2.534896E-2],"split_indices":[15,1,1,1,12,12,15,13,15,0,12,15,14,0,0,0,0,0,0,0,0,0,0,0,0],"split_type":[0,0,0,0,0,0,0,0,0,0,0,0,0,0,0,0,0,0,0,0,0,0,0,0,0],"sum_hessian":[1.2077134E3,1.0315322E3,1.7618105E2,1.00273914E3,2.8793173E1,1.7087141E2,5.3096247E0,9.716716E2,3.1067558E1,2.731993E0,2.606118E1,1.5529375E1,1.5534204E2,1.8442225E0,3.4654021E0,6.587641E2,3.1290747E2,2.8622663E1,2.4448948E0,2.4493015E1,1.5681639E0,3.0601223E0,1.2469254E1,1.485827E2,6.7593284E0],"tree_param":{"num_deleted":"0","num_feature":"16","num_nodes":"25","size_leaf_vector":"1"}},{"base_weights":[2.1987888E-3,-1.5905173E-1,9.793041E-1,-8.8607484E-1,-1.4575242E-1,9.929356E-1,3.7950823E-1,-6.301343E-2,7.076367E-1,-7.1828045E-2,-2.9571277E-1,6.310094E-1,1.0219611E0,3.7291303E-2,-6.980193E-3,7.580413E-2,-2.3699855E-2,-2.7346676E-2,-1.4987699E-3,-3.2739174E-2,-7.978279E-3,-0E0,3.731033E-2,5.1340487E-2,2.1770657E-3],"categories":[],"categories_nodes":[],"categories_segments":[],"categories_sizes":[],"default_left":[0,0,0,0,0,0,0,0,0,0,0,0,0,0,0,0,0,0,0,0,0,0,0,0,0],"id":37,"left_children":[1,3,5,7,9,11,13,-1,15,17,19,21,23,-1,-1,-1,-1,-1,-1,-1,-1,-1,-1,-1,-1],"loss_changes":[1.893179E2,9.301378E0,3.2913208E-1,1.1668539E1,1.1014809E1,2.625885E-1,1.5895689E0,0E0,4.807073E0,1.3245722E1,1.5700523E1,8.578477E-1,1.3128662E-1,0E0,0E0,0E0,0E0,0E0,0E0,0E0,0E0,0E0,0E0,0E0,0E0],"parents":[2147483647,0,0,1,1,2,2,3,3,4,4,5,5,6,6,8,8,9,9,10,10,11,11,12,12],"right_children":[2,4,6,8,10,12,14,-1,16,18,20,22,24,-1,-1,-1,-1,-1,-1,-1,-1,-1,-1,-1,-1],"split_conditions":[3E-1,3.561E2,5.6237E3,2E0,3.14278E3,9.2E1,1E0,-6.301343E-2,1E0,2E0,3.7066E3,3.3E-1,3.03998E3,3.7291303E-2,-6.980193E-3,7.580413E-2,-2.3699855E-2,-2.7346676E-2,-1.4987699E-3,-3.2739174E-2,-7.978279E-3,-0E0,3.731033E-2,5.1340487E-2,2.1770657E-3],"split_indices":[15,1,1,3,1,12,10,0,2,5,1,15,9,0,0,0,0,0,0,0,0,0,0,0,0],"split_type":[0,0,0,0,0,0,0,0,0,0,0,0,0,0,0,0,0,0,0,0,0,0,0,0,0],"sum_hessian":[1.1969788E3,1.0277035E3,1.6927518E2,1.6607601E1,1.01109595E3,1.6405759E2,5.2175913E0,1.3873214E1,2.7343874E0,6.804667E2,3.3062927E2,1.5147349E1,1.4891025E2,3.36763E0,1.849961E0,1.7067637E0,1.0276237E0,5.3145992E1,6.273207E2,8.884092E1,2.4178835E2,3.0601223E0,1.2087228E1,1.4761823E2,1.2920197E0],"tree_param":{"num_deleted":"0","num_feature":"16","num_nodes":"25","size_leaf_vector":"1"}},{"base_weights":[2.1985157E-3,-1.5181223E-1,9.704299E-1,-1.3218947E-1,-6.269517E-1,9.844907E-1,3.6692202E-1,-2.42563E-1,-3.2986075E-2,6.1362207E-1,-9.9031174E-1,6.175226E-1,1.0144591E0,-7.901884E-3,3.7002165E-2,-9.484986E-3,-5.5366736E-2,-2.790448E-3,7.917065E-2,5.823613E-2,-3.5100505E-2,-5.9303034E-2,4.1345708E-2,4.4914003E-2,1.2478858E-2,5.16338E-2,2.3397049E-2],"categories":[],"categories_nodes":[],"categories_segments":[],"categories_sizes":[],"default_left":[0,0,0,0,0,0,0,0,0,0,0,0,0,0,0,0,0,0,0,0,0,0,0,0,0,0,0],"id":38,"left_children":[1,3,5,7,9,11,13,15,17,19,21,23,25,-1,-1,-1,-1,-1,-1,-1,-1,-1,-1,-1,-1,-1,-1],"loss_changes":[1.7770573E2,9.097595E0,3.5144043E-1,1.06610565E1,1.8551702E1,3.0049133E-1,1.6084492E0,2.0382433E1,1.8630817E1,7.740486E0,1.2244646E1,8.320956E-1,1.9714355E-1,0E0,0E0,0E0,0E0,0E0,0E0,0E0,0E0,0E0,0E0,0E0,0E0,0E0,0E0],"parents":[2147483647,0,0,1,1,2,2,3,3,4,4,5,5,6,6,7,7,8,8,9,9,10,10,11,11,12,12],"right_children":[2,4,6,8,10,12,14,16,18,20,22,24,26,-1,-1,-1,-1,-1,-1,-1,-1,-1,-1,-1,-1,-1,-1],"split_conditions":[3E-1,2.59015E3,5.6237E3,4.5E1,1.2E1,9.2E1,3.4E-1,4.2E1,1.474E3,1.97E2,7.27341E3,3.9E1,5.9E-1,-7.901884E-3,3.7002165E-2,-9.484986E-3,-5.5366736E-2,-2.790448E-3,7.917065E-2,5.823613E-2,-3.5100505E-2,-5.9303034E-2,4.1345708E-2,4.4914003E-2,1.2478858E-2,5.16338E-2,2.3397049E-2],"split_indices":[15,9,1,13,13,12,15,13,12,12,9,12,14,0,0,0,0,0,0,0,0,0,0,0,0,0,0],"split_type":[0,0,0,0,0,0,0,0,0,0,0,0,0,0,0,0,0,0,0,0,0,0,0,0,0,0,0],"sum_hessian":[1.186979E3,1.0243661E3,1.6261295E2,9.8597687E2,3.838924E1,1.5748404E2,5.12891E0,4.636431E2,5.2233374E2,8.229051E0,3.0160189E1,1.4780829E1,1.4270322E2,1.8136325E0,3.3152776E0,4.3862747E2,2.5015642E1,5.1631836E2,6.015399E0,6.148343E0,2.0807076E0,2.778924E1,2.370948E0,6.7954125E0,7.985417E0,1.3635376E2,6.349444E0],"tree_param":{"num_deleted":"0","num_feature":"16","num_nodes":"27","size_leaf_vector":"1"}},{"base_weights":[2.3670103E-3,-1.4478125E-1,9.6158236E-1,7.5125694E-2,-1.8394569E-1,9.7608167E-1,3.544947E-1,5.090482E-1,-3.55025E-1,-4.4145676E-1,-6.857885E-2,6.0476017E-1,1.007019E0,3.6449265E-2,-7.7428757E-3,-5.0946094E-2,3.1426594E-2,1.9865308E-2,-3.3496633E-2,-6.04286E-2,-1.4257294E-2,2.9979515E-4,-2.1734545E-2,-0E0,3.621265E-2,5.1293056E-2,2.2775715E-2],"categories":[],"categories_nodes":[],"categories_segments":[],"categories_sizes":[],"default_left":[0,0,0,0,0,0,0,0,0,0,0,0,0,0,0,0,0,0,0,0,0,0,0,0,0,0,0],"id":39,"left_children":[1,3,5,7,9,11,13,15,17,19,21,23,25,-1,-1,-1,-1,-1,-1,-1,-1,-1,-1,-1,-1,-1,-1],"loss_changes":[1.6683545E2,8.868898E0,3.730774E-1,2.8863049E1,2.5548695E1,3.3390808E-1,1.5527037E0,1.45544815E1,1.8638369E1,3.0986732E1,1.6682325E1,9.0144634E-1,2.237091E-1,0E0,0E0,0E0,0E0,0E0,0E0,0E0,0E0,0E0,0E0,0E0,0E0,0E0,0E0],"parents":[2147483647,0,0,1,1,2,2,3,3,4,4,5,5,6,6,7,7,8,8,9,9,10,10,11,11,12,12],"right_children":[2,4,6,8,10,12,14,16,18,20,22,24,26,-1,-1,-1,-1,-1,-1,-1,-1,-1,-1,-1,-1,-1,-1],"split_conditions":[3E-1,2E-2,5.6237E3,1.4E-1,5E-2,9.2E1,1E0,3E0,1.97E2,1.02564E3,4.09687E3,3.3E-1,5.9E-1,3.6449265E-2,-7.7428757E-3,-5.0946094E-2,3.1426594E-2,1.9865308E-2,-3.3496633E-2,-6.04286E-2,-1.4257294E-2,2.9979515E-4,-2.1734545E-2,-0E0,3.621265E-2,5.1293056E-2,2.2775715E-2],"split_indices":[15,15,1,14,15,12,10,5,12,1,1,15,14,0,0,0,0,0,0,0,0,0,0,0,0,0,0],"split_type":[0,0,0,0,0,0,0,0,0,0,0,0,0,0,0,0,0,0,0,0,0,0,0,0,0,0,0],"sum_hessian":[1.1771191E3,1.0208445E3,1.5627467E2,1.5225473E2,8.685898E2,1.5123134E2,5.043332E0,7.62824E1,7.597233E1,2.6652255E2,6.020672E2,1.4454366E1,1.3677698E2,3.2236493E0,1.8196828E0,4.683022E0,7.159938E1,2.1871273E1,5.4101055E1,4.3434025E1,2.2308853E2,4.9986563E2,1.022016E2,2.960338E0,1.1494027E1,1.3055003E2,6.2269444E0],"tree_param":{"num_deleted":"0","num_feature":"16","num_nodes":"27","size_leaf_vector":"1"}},{"base_weights":[2.3506996E-3,-1.3818747E-1,9.5278394E-1,-1.5458354E-1,3.9726073E-1,9.677357E-1,3.423411E-1,-1.2902166E-1,-9.421506E-1,-4.0478345E-2,5.625304E-1,5.913234E-1,9.996881E-1,-8.613507E-3,3.6173522E-2,-4.254211E-2,-5.7659554E-3,-5.8258463E-2,4.9380124E-2,4.286718E-2,-1.5869177E-3,4.4145208E-2,1.0784585E-2,5.026604E-2,-0E0],"categories":[],"categories_nodes":[],"categories_segments":[],"categories_sizes":[],"default_left":[0,0,0,0,0,0,0,0,0,0,0,0,0,0,0,0,0,0,0,0,0,0,0,0,0],"id":40,"left_children":[1,3,5,7,9,11,13,15,17,-1,19,21,23,-1,-1,-1,-1,-1,-1,-1,-1,-1,-1,-1,-1],"loss_changes":[1.566749E2,8.884029E0,3.9338684E-1,1.9275604E1,6.2442245E0,3.7179565E-1,1.5693662E0,8.921538E0,1.4302214E1,0E0,5.175069E0,9.154544E-1,2.6437378E-1,0E0,0E0,0E0,0E0,0E0,0E0,0E0,0E0,0E0,0E0,0E0,0E0],"parents":[2147483647,0,0,1,1,2,2,3,3,4,4,5,5,6,6,7,7,8,8,10,10,11,11,12,12],"right_children":[2,4,6,8,10,12,14,16,18,-1,20,22,24,-1,-1,-1,-1,-1,-1,-1,-1,-1,-1,-1,-1],"split_conditions":[3E-1,6.52775E3,5.6237E3,5.28328E3,3.72E2,9.2E1,3.4E-1,3.561E2,1E-1,-4.0478345E-2,7.3E2,3.9E1,3.03998E3,-8.613507E-3,3.6173522E-2,-4.254211E-2,-5.7659554E-3,-5.8258463E-2,4.9380124E-2,4.286718E-2,-1.5869177E-3,4.4145208E-2,1.0784585E-2,5.026604E-2,-0E0],"split_indices":[15,1,1,1,12,12,15,1,15,0,12,12,9,0,0,0,0,0,0,0,0,0,0,0,0],"split_type":[0,0,0,0,0,0,0,0,0,0,0,0,0,0,0,0,0,0,0,0,0,0,0,0,0],"sum_hessian":[1.1679259E3,1.0177607E3,1.5016518E2,9.891178E2,2.8642904E1,1.4520427E2,4.960909E0,9.597656E2,2.9352198E1,2.6160724E0,2.6026833E1,1.411215E1,1.3109212E2,1.7857927E0,3.175116E0,1.6062187E1,9.437034E2,2.6898848E1,2.4533513E0,1.7663004E1,8.36383E0,6.43528E0,7.676871E0,1.2987764E2,1.2144707E0],"tree_param":{"num_deleted":"0","num_feature":"16","num_nodes":"25","size_leaf_vector":"1"}},{"base_weights":[2.4060109E-3,-1.3186298E-1,9.440702E-1,8.416268E-1,-1.4086658E-1,9.59491E-1,3.3034807E-1,6.690301E-2,-3.656369E-2,-5.8172774E-1,-1.1549635E-1,5.7886726E-1,9.924951E-1,3.5635438E-2,-8.444338E-3,-1.1459583E-3,-5.4567244E-2,5.9681654E-2,-6.3576526E-3,-0E0,3.513814E-2,5.0642937E-2,2.0829758E-2],"categories":[],"categories_nodes":[],"categories_segments":[],"categories_sizes":[],"default_left":[0,0,0,0,0,0,0,0,0,0,0,0,0,0,0,0,0,0,0,0,0,0,0],"id":41,"left_children":[1,3,5,7,9,11,13,-1,-1,15,17,19,21,-1,-1,-1,-1,-1,-1,-1,-1,-1,-1],"loss_changes":[1.4715475E2,8.667732E0,4.132843E-1,8.262029E0,1.08519745E1,4.038391E-1,1.5149598E0,0E0,0E0,1.4653299E1,1.4190802E1,9.371891E-1,3.4814453E-1,0E0,0E0,0E0,0E0,0E0,0E0,0E0,0E0,0E0,0E0],"parents":[2147483647,0,0,1,1,2,2,3,3,4,4,5,5,6,6,9,9,10,10,11,11,12,12],"right_children":[2,4,6,8,10,12,14,-1,-1,16,18,20,22,-1,-1,-1,-1,-1,-1,-1,-1,-1,-1],"split_conditions":[3E-1,1E1,5.6237E3,2E0,5.4E1,9.2E1,1E0,6.690301E-2,-3.656369E-2,1.3E-1,5.8E1,3.3E-1,5.9E-1,3.5635438E-2,-8.444338E-3,-1.1459583E-3,-5.4567244E-2,5.9681654E-2,-6.3576526E-3,-0E0,3.513814E-2,5.0642937E-2,2.0829758E-2],"split_indices":[15,12,1,0,12,12,10,0,0,14,12,15,14,0,0,0,0,0,0,0,0,0,0],"split_type":[0,0,0,0,0,0,0,0,0,0,0,0,0,0,0,0,0,0,0,0,0,0,0],"sum_hessian":[1.1586682E3,1.01436237E3,1.443058E2,7.9392753E0,1.0064231E3,1.3942444E2,4.8813705E0,6.3897524E0,1.5495231E0,5.24993E1,9.539238E2,1.3813018E1,1.2561141E2,3.0892587E0,1.792112E0,2.6007496E1,2.6491804E1,7.1454654E0,9.467783E2,2.864979E0,1.0948039E1,1.19750145E2,5.8612647E0],"tree_param":{"num_deleted":"0","num_feature":"16","num_nodes":"23","size_leaf_vector":"1"}},{"base_weights":[2.5464501E-3,-1.2562987E-1,9.353166E-1,-1.0673805E-1,-5.982369E-1,9.512152E-1,3.1862813E-1,-1.1861812E-1,7.9863536E-1,5.977952E-1,-9.629914E-1,5.654775E-1,9.853161E-1,-9.265454E-3,3.537226E-2,-5.037616E-3,-4.3615423E-2,7.2013564E-2,-4.0530864E-2,5.594906E-2,-3.3696607E-2,-5.8178414E-2,3.912594E-2,4.339181E-2,9.144551E-3,5.031959E-2,2.0249978E-2],"categories":[],"categories_nodes":[],"categories_segments":[],"categories_sizes":[],"default_left":[0,0,0,0,0,0,0,0,0,0,0,0,0,0,0,0,0,0,0,0,0,0,0,0,0,0,0],"id":42,"left_children":[1,3,5,7,9,11,13,15,17,19,21,23,25,-1,-1,-1,-1,-1,-1,-1,-1,-1,-1,-1,-1,-1,-1],"loss_changes":[1.3817549E2,8.625036E0,4.3154907E-1,1.0252098E1,1.720042E1,4.4166565E-1,1.5295525E0,1.2416077E1,1.4104992E1,7.0111876E0,1.1458841E1,9.9249506E-1,3.713684E-1,0E0,0E0,0E0,0E0,0E0,0E0,0E0,0E0,0E0,0E0,0E0,0E0,0E0,0E0],"parents":[2147483647,0,0,1,1,2,2,3,3,4,4,5,5,6,6,7,7,8,8,9,9,10,10,11,11,12,12],"right_children":[2,4,6,8,10,12,14,16,18,20,22,24,26,-1,-1,-1,-1,-1,-1,-1,-1,-1,-1,-1,-1,-1,-1],"split_conditions":[3E-1,2.59015E3,5.6237E3,2.38998E3,1.2E1,9.2E1,3.4E-1,1.77013E3,3.21E2,1.97E2,7.27341E3,3.9E1,5.9E-1,-9.265454E-3,3.537226E-2,-5.037616E-3,-4.3615423E-2,7.2013564E-2,-4.0530864E-2,5.594906E-2,-3.3696607E-2,-5.8178414E-2,3.912594E-2,4.339181E-2,9.144551E-3,5.031959E-2,2.0249978E-2],"split_indices":[15,9,1,9,13,12,15,9,12,12,9,12,14,0,0,0,0,0,0,0,0,0,0,0,0,0,0],"split_type":[0,0,0,0,0,0,0,0,0,0,0,0,0,0,0,0,0,0,0,0,0,0,0,0,0,0,0],"sum_hessian":[1.1503403E3,1.0116535E3,1.3868677E2,9.749645E2,3.6689045E1,1.3388197E2,4.804798E0,9.6373975E2,1.1224692E1,8.104537E0,2.8584509E1,1.34934435E1,1.2038853E2,1.7605017E0,3.0442965E0,9.431793E2,2.0560453E1,8.322201E0,2.902491E0,6.1126814E0,1.991856E0,2.6194353E1,2.3901548E0,6.0985303E0,7.394913E0,1.1462964E2,5.7588916E0],"tree_param":{"num_deleted":"0","num_feature":"16","num_nodes":"27","size_leaf_vector":"1"}},{"base_weights":[2.651084E-3,-1.1981816E-1,9.265961E-1,-2.1616732E-1,-3.2850903E-2,9.429832E-1,3.0707106E-1,-8.302066E-2,-5.6937987E-1,-5.291408E-1,3.9165325E-2,5.533454E-1,9.781904E-1,3.4848373E-2,-9.086958E-3,8.8130403E-4,-3.641219E-2,1.07780015E-2,-3.915256E-2,2.913167E-2,-3.7295666E-2,-2.2981043E-3,1.6537135E-2,-0E0,3.408696E-2,5.000033E-2,1.9680385E-2],"categories":[],"categories_nodes":[],"categories_segments":[],"categories_sizes":[],"default_left":[0,0,0,0,0,0,0,0,0,0,0,0,0,0,0,0,0,0,0,0,0,0,0,0,0,0,0],"id":43,"left_children":[1,3,5,7,9,11,13,15,17,19,21,23,25,-1,-1,-1,-1,-1,-1,-1,-1,-1,-1,-1,-1,-1,-1],"loss_changes":[1.2982126E2,8.326432E0,4.4921875E-1,2.20108E1,1.9367102E1,4.708786E-1,1.4765078E0,2.2958284E1,2.2105556E1,1.706668E1,1.1743318E1,9.657197E-1,3.9387512E-1,0E0,0E0,0E0,0E0,0E0,0E0,0E0,0E0,0E0,0E0,0E0,0E0,0E0,0E0],"parents":[2147483647,0,0,1,1,2,2,3,3,4,4,5,5,6,6,7,7,8,8,9,9,10,10,11,11,12,12],"right_children":[2,4,6,8,10,12,14,16,18,20,22,24,26,-1,-1,-1,-1,-1,-1,-1,-1,-1,-1,-1,-1,-1,-1],"split_conditions":[3E-1,4.5E1,5.6237E3,3.2E1,3E0,9.2E1,1E0,2.6E-1,4E0,6.4637E2,3.7066E3,3.3E-1,5.9E-1,3.4848373E-2,-9.086958E-3,8.8130403E-4,-3.641219E-2,1.07780015E-2,-3.915256E-2,2.913167E-2,-3.7295666E-2,-2.2981043E-3,1.6537135E-2,-0E0,3.408696E-2,5.000033E-2,1.9680385E-2],"split_indices":[15,13,1,13,5,12,10,14,5,1,1,15,14,0,0,0,0,0,0,0,0,0,0,0,0,0,0],"split_type":[0,0,0,0,0,0,0,0,0,0,0,0,0,0,0,0,0,0,0,0,0,0,0,0,0,0,0],"sum_hessian":[1.1417424E3,1.0084069E3,1.3333554E2,4.7496664E2,5.334403E2,1.2860463E2,4.730908E0,3.4686383E2,1.2810281E2,6.7673454E1,4.6576685E2,1.3219791E1,1.1538484E2,2.9638548E0,1.7670531E0,3.0022952E2,4.6634293E1,2.6907377E1,1.0119544E2,1.0390215E1,5.7283237E1,3.5983798E2,1.0592887E2,2.7738895E0,1.0445902E1,1.0972408E2,5.660754E0],"tree_param":{"num_deleted":"0","num_feature":"16","num_nodes":"27","size_leaf_vector":"1"}},{"base_weights":[2.6963984E-3,-1.141922E-1,9.1782904E-1,-8.174818E-1,-1.0176828E-1,9.347171E-1,2.9578552E-1,-6.0283717E-2,3.6619928E-2,-3.441942E-3,-2.0843175E-1,5.400021E-1,9.7110116E-1,-9.860271E-3,3.459707E-2,-4.752099E-3,2.850685E-2,-1.2432921E-2,1.9456778E-2,4.2651445E-2,7.5621903E-3,4.8898753E-2,-0E0],"categories":[],"categories_nodes":[],"categories_segments":[],"categories_sizes":[],"default_left":[0,0,0,0,0,0,0,0,0,0,0,0,0,0,0,0,0,0,0,0,0,0,0],"id":44,"left_children":[1,3,5,7,9,11,13,-1,-1,15,17,19,21,-1,-1,-1,-1,-1,-1,-1,-1,-1,-1],"loss_changes":[1.2194111E2,8.2564945E0,4.65271E-1,1.1131506E1,1.0291199E1,5.0823975E-1,1.4891871E0,0E0,0E0,2.710202E1,1.1398808E1,1.0629468E0,4.365692E-1,0E0,0E0,0E0,0E0,0E0,0E0,0E0,0E0,0E0,0E0],"parents":[2147483647,0,0,1,1,2,2,3,3,4,4,5,5,6,6,9,9,10,10,11,11,12,12],"right_children":[2,4,6,8,10,12,14,-1,-1,16,18,20,22,-1,-1,-1,-1,-1,-1,-1,-1,-1,-1],"split_conditions":[3E-1,3.561E2,5.6237E3,2E0,2.39972E3,9.2E1,3.4E-1,-6.0283717E-2,3.6619928E-2,2.15301E3,6.52775E3,3.9E1,3.03998E3,-9.860271E-3,3.459707E-2,-4.752099E-3,2.850685E-2,-1.2432921E-2,1.9456778E-2,4.2651445E-2,7.5621903E-3,4.8898753E-2,-0E0],"split_indices":[15,1,1,3,1,12,15,0,0,1,1,12,9,0,0,0,0,0,0,0,0,0,0],"split_type":[0,0,0,0,0,0,0,0,0,0,0,0,0,0,0,0,0,0,0,0,0,0,0],"sum_hessian":[1.1342352E3,1.00606134E3,1.2817395E2,1.5640572E1,9.904208E2,1.2351415E2,4.659793E0,1.2943383E1,2.6971877E0,5.1832733E2,4.720934E2,1.2921227E1,1.10592926E2,1.7375699E0,2.922223E0,4.4842096E2,6.9906395E1,4.4364874E2,2.8444666E1,5.7837706E0,7.1374574E0,1.0948618E2,1.1067407E0],"tree_param":{"num_deleted":"0","num_feature":"16","num_nodes":"23","size_leaf_vector":"1"}},{"base_weights":[2.8258222E-3,-1.0879021E-1,9.090806E-1,1.0229669E-1,-1.4663936E-1,9.264832E-1,2.8466427E-1,5.1328385E-1,-3.1282842E-1,-3.972975E-1,-3.5612196E-2,5.282151E-1,9.640472E-1,3.4086876E-2,-9.673358E-3,8.525891E-3,5.326118E-2,-4.024719E-2,7.787601E-3,-5.815197E-2,-1.2219531E-2,-4.5904793E-2,-1.2927342E-4,4.213481E-2,7.27234E-3,4.9382724E-2,1.7749654E-2],"categories":[],"categories_nodes":[],"categories_segments":[],"categories_sizes":[],"default_left":[0,0,0,0,0,0,0,0,0,0,0,0,0,0,0,0,0,0,0,0,0,0,0,0,0,0,0],"id":45,"left_children":[1,3,5,7,9,11,13,15,17,19,21,23,25,-1,-1,-1,-1,-1,-1,-1,-1,-1,-1,-1,-1,-1,-1],"loss_changes":[1.14549034E2,8.060735E0,4.8069E-1,2.6069677E1,2.3535969E1,5.345993E-1,1.4375288E0,1.3767706E1,1.780778E1,2.9533352E1,1.6859175E1,1.0290208E0,5.161514E-1,0E0,0E0,0E0,0E0,0E0,0E0,0E0,0E0,0E0,0E0,0E0,0E0,0E0,0E0],"parents":[2147483647,0,0,1,1,2,2,3,3,4,4,5,5,6,6,7,7,8,8,9,9,10,10,11,11,12,12],"right_children":[2,4,6,8,10,12,14,16,18,20,22,24,26,-1,-1,-1,-1,-1,-1,-1,-1,-1,-1,-1,-1,-1,-1],"split_conditions":[3E-1,2E-2,5.6237E3,1.4E-1,5E-2,9.2E1,1E0,6.9E1,2.3E-1,1.02564E3,2E-2,3.9E1,5.9E-1,3.4086876E-2,-9.673358E-3,8.525891E-3,5.326118E-2,-4.024719E-2,7.787601E-3,-5.815197E-2,-1.2219531E-2,-4.5904793E-2,-1.2927342E-4,4.213481E-2,7.27234E-3,4.9382724E-2,1.7749654E-2],"split_indices":[15,15,1,14,15,12,10,13,14,1,14,12,14,0,0,0,0,0,0,0,0,0,0,0,0,0,0],"split_type":[0,0,0,0,0,0,0,0,0,0,0,0,0,0,0,0,0,0,0,0,0,0,0,0,0,0,0],"sum_hessian":[1.1265046E3,1.0032685E3,1.2323618E2,1.5027318E2,8.529953E2,1.1864502E2,4.5911627E0,7.599937E1,7.427381E1,2.5967154E2,5.933238E2,1.2671293E1,1.05973724E2,2.8468463E0,1.7443161E0,4.8249973E1,2.7749393E1,3.639746E1,3.7876347E1,4.157783E1,2.180937E2,1.9891062E1,5.7343274E2,5.5794115E0,7.0918813E0,1.0063067E2,5.343061E0],"tree_param":{"num_deleted":"0","num_feature":"16","num_nodes":"27","size_leaf_vector":"1"}},{"base_weights":[2.806818E-3,-1.0380505E-1,9.0029943E-1,-8.5711285E-2,-5.6997037E-1,9.182196E-1,2.7381343E-1,-4.306668E-1,-5.3747803E-2,5.900306E-1,-9.3900317E-1,5.1662236E-1,9.5697635E-1,-1.0400462E-2,3.3846777E-2,-5.6155737E-2,3.956913E-4,3.525934E-4,-1.2209889E-2,5.454232E-2,-3.264367E-2,-5.717522E-2,3.677429E-2,-0E0,3.2702677E-2,4.869522E-2,9.866586E-3],"categories":[],"categories_nodes":[],"categories_segments":[],"categories_sizes":[],"default_left":[0,0,0,0,0,0,0,0,0,0,0,0,0,0,0,0,0,0,0,0,0,0,0,0,0,0,0],"id":46,"left_children":[1,3,5,7,9,11,13,15,17,19,21,23,25,-1,-1,-1,-1,-1,-1,-1,-1,-1,-1,-1,-1,-1,-1],"loss_changes":[1.0767779E2,8.072119E0,4.9462128E-1,1.0390791E1,1.6232197E1,5.589905E-1,1.4484366E0,2.5010365E1,1.0390779E1,6.5508366E0,1.0697882E1,1.0473447E0,5.413666E-1,0E0,0E0,0E0,0E0,0E0,0E0,0E0,0E0,0E0,0E0,0E0,0E0,0E0,0E0],"parents":[2147483647,0,0,1,1,2,2,3,3,4,4,5,5,6,6,7,7,8,8,9,9,10,10,11,11,12,12],"right_children":[2,4,6,8,10,12,14,16,18,20,22,24,26,-1,-1,-1,-1,-1,-1,-1,-1,-1,-1,-1,-1,-1,-1],"split_conditions":[3E-1,2.59015E3,5.6237E3,1E1,1.2E1,9.2E1,3.4E-1,4.71E2,7.3E2,1.97E2,7.27341E3,3.3E-1,1.219E3,-1.0400462E-2,3.3846777E-2,-5.6155737E-2,3.956913E-4,3.525934E-4,-1.2209889E-2,5.454232E-2,-3.264367E-2,-5.717522E-2,3.677429E-2,-0E0,3.2702677E-2,4.869522E-2,9.866586E-3],"split_indices":[15,9,1,13,13,12,15,12,12,12,9,15,12,0,0,0,0,0,0,0,0,0,0,0,0,0,0],"split_type":[0,0,0,0,0,0,0,0,0,0,0,0,0,0,0,0,0,0,0,0,0,0,0,0,0,0,0],"sum_hessian":[1.1192164E3,1.0006749E3,1.1854152E2,9.65458E2,3.5216892E1,1.1401639E2,4.5251293E0,7.9488434E1,8.859696E2,8.0280695E0,2.7188822E1,1.2431539E1,1.0158485E2,1.7168223E0,2.8083074E0,3.066019E1,4.882824E1,6.703145E2,2.1565508E2,6.096265E0,1.9318051E0,2.4778397E1,2.410424E0,2.6032164E0,9.828322E0,9.845069E1,3.1341567E0],"tree_param":{"num_deleted":"0","num_feature":"16","num_nodes":"27","size_leaf_vector":"1"}},{"base_weights":[2.8146496E-3,-9.89715E-2,8.9134145E-1,-3.76332E-2,-2.2865647E-1,9.0979207E-1,2.6312807E-1,3.805644E-2,-2.9198736E-1,-5.89997E-1,-9.279054E-2,5.032342E-1,9.498408E-1,3.3349868E-2,-1.0205956E-2,-2.1057068E-4,3.3247814E-2,-4.213872E-3,-5.4494064E-2,-0E0,-5.1103123E-2,-2.2108495E-2,1.2921537E-2,4.140797E-2,5.7685995E-3,4.876995E-2,1.5770001E-2],"categories":[],"categories_nodes":[],"categories_segments":[],"categories_sizes":[],"default_left":[0,0,0,0,0,0,0,0,0,0,0,0,0,0,0,0,0,0,0,0,0,0,0,0,0,0,0],"id":47,"left_children":[1,3,5,7,9,11,13,15,17,19,21,23,25,-1,-1,-1,-1,-1,-1,-1,-1,-1,-1,-1,-1,-1,-1],"loss_changes":[1.0114648E2,7.805154E0,5.071564E-1,1.3268869E1,1.521455E1,5.953369E-1,1.3981884E0,1.4244554E1,2.551411E1,2.2350565E1,2.8831667E1,1.0910752E0,6.422653E-1,0E0,0E0,0E0,0E0,0E0,0E0,0E0,0E0,0E0,0E0,0E0,0E0,0E0,0E0],"parents":[2147483647,0,0,1,1,2,2,3,3,4,4,5,5,6,6,7,7,8,8,9,9,10,10,11,11,12,12],"right_children":[2,4,6,8,10,12,14,16,18,20,22,24,26,-1,-1,-1,-1,-1,-1,-1,-1,-1,-1,-1,-1,-1,-1],"split_conditions":[3E-1,3.14278E3,5.6237E3,3E0,3.7066E3,9.2E1,1E0,2.98617E3,1E0,3.7E1,4.7E1,3.9E1,5.9E-1,3.3349868E-2,-1.0205956E-2,-2.1057068E-4,3.3247814E-2,-4.213872E-3,-5.4494064E-2,-0E0,-5.1103123E-2,-2.2108495E-2,1.2921537E-2,4.140797E-2,5.7685995E-3,4.876995E-2,1.5770001E-2],"split_indices":[15,1,1,0,1,12,10,1,4,13,13,12,14,0,0,0,0,0,0,0,0,0,0,0,0,0,0],"split_type":[0,0,0,0,0,0,0,0,0,0,0,0,0,0,0,0,0,0,0,0,0,0,0,0,0,0,0],"sum_hessian":[1.1120295E3,9.980255E2,1.14004005E2,6.810491E2,3.169764E2,1.0954261E2,4.461395E0,5.240031E2,1.57046E2,8.469754E1,2.3227885E2,1.2159069E1,9.738354E1,2.7376635E0,1.7237312E0,4.9108786E2,3.2915215E1,1.2598224E2,3.1063766E1,3.5744457E1,4.895308E1,1.17028625E2,1.1525024E2,5.2971573E0,6.861912E0,9.233821E1,5.0453258E0],"tree_param":{"num_deleted":"0","num_feature":"16","num_nodes":"27","size_leaf_vector":"1"}},{"base_weights":[2.7823003E-3,-9.4425656E-2,8.824556E-1,-1.0327024E-1,8.00068E-1,5.879377E-1,9.3900174E-1,-6.502687E-2,-4.305982E-1,-4.491672E-2,7.5971745E-2,6.8485254E-1,-9.063477E-3,9.7618407E-1,3.2639673E-1,2.0312401E-3,-9.461923E-3,-6.766393E-2,-4.149236E-3,7.3783784E-3,3.8799584E-2,1.4603441E-2,-2.4618054E-2,4.9932964E-2,-0E0,-2.0537293E-2,3.9052695E-2],"categories":[],"categories_nodes":[],"categories_segments":[],"categories_sizes":[],"default_left":[0,0,0,0,0,0,0,0,0,0,0,0,0,0,0,0,0,0,0,0,0,0,0,0,0,0,0],"id":48,"left_children":[1,3,5,7,9,11,13,15,17,-1,-1,19,21,23,25,-1,-1,-1,-1,-1,-1,-1,-1,-1,-1,-1,-1],"loss_changes":[9.508991E1,7.619749E0,5.2817535E-1,1.2097179E1,1.3062159E1,1.6129808E0,1.0750275E0,1.17294855E1,3.1837872E1,0E0,0E0,3.8354778E-1,7.28488E-1,1.4511185E0,2.9890928E0,0E0,0E0,0E0,0E0,0E0,0E0,0E0,0E0,0E0,0E0,0E0,0E0],"parents":[2147483647,0,0,1,1,2,2,3,3,4,4,5,5,6,6,7,7,8,8,11,11,12,12,13,13,14,14],"right_children":[2,4,6,8,10,12,14,16,18,-1,-1,20,22,24,26,-1,-1,-1,-1,-1,-1,-1,-1,-1,-1,-1,-1],"split_conditions":[3E-1,1.474E3,1.62E2,9.48E2,4.3E1,1.39E2,5.03011E3,2.39972E3,1.1E-1,-4.491672E-2,7.5971745E-2,3.3E-1,1.55348E3,1.185E3,4.1E-1,2.0312401E-3,-9.461923E-3,-6.766393E-2,-4.149236E-3,7.3783784E-3,3.8799584E-2,1.4603441E-2,-2.4618054E-2,4.9932964E-2,-0E0,-2.0537293E-2,3.9052695E-2],"split_indices":[15,12,12,12,13,12,1,1,14,0,0,15,1,12,14,0,0,0,0,0,0,0,0,0,0,0,0],"split_type":[0,0,0,0,0,0,0,0,0,0,0,0,0,0,0,0,0,0,0,0,0,0,0,0,0,0,0],"sum_hessian":[1.1054342E3,9.957262E2,1.0970807E2,9.8740643E2,8.319765E0,2.0930809E1,8.877726E1,8.8655225E2,1.00854164E2,2.1945827E0,6.125182E0,1.8601482E1,2.3293262E0,8.236821E1,6.409057E0,4.772561E2,4.0929617E2,2.6413261E1,7.44409E1,3.873227E0,1.4728255E1,1.0415035E0,1.2878226E0,8.011299E1,2.2552173E0,2.0622885E0,4.3467684E0],"tree_param":{"num_deleted":"0","num_feature":"16","num_nodes":"27","size_leaf_vector":"1"}},{"base_weights":[2.7856405E-3,-9.000012E-2,8.733727E-1,-7.797743E-1,-7.810567E-2,5.7497203E-1,9.3165E-1,-5.8750875E-2,3.5845358E-2,3.2702827E-1,-9.964772E-2,6.724787E-1,-3.9582187E-3,9.7017366E-1,3.1421658E-1,-5.961728E-2,3.1201933E-2,-1.2188499E-2,-5.5954856E-4,7.1209106E-3,3.8212012E-2,-2.447846E-2,1.4823536E-2,4.9674623E-2,-0E0,-2.006051E-2,3.8589526E-2],"categories":[],"categories_nodes":[],"categories_segments":[],"categories_sizes":[],"default_left":[0,0,0,0,0,0,0,0,0,0,0,0,0,0,0,0,0,0,0,0,0,0,0,0,0,0,0],"id":49,"left_children":[1,3,5,7,9,11,13,-1,-1,15,17,19,21,23,25,-1,-1,-1,-1,-1,-1,-1,-1,-1,-1,-1,-1],"loss_changes":[8.934666E1,7.670925E0,5.64476E-1,1.0558434E1,8.468575E0,1.5465293E0,1.1021957E0,0E0,0E0,2.2356232E1,1.1752915E1,3.6607647E-1,7.295229E-1,1.4305115E0,2.884991E0,0E0,0E0,0E0,0E0,0E0,0E0,0E0,0E0,0E0,0E0,0E0,0E0],"parents":[2147483647,0,0,1,1,2,2,3,3,4,4,5,5,6,6,9,9,10,10,11,11,12,12,13,13,14,14],"right_children":[2,4,6,8,10,12,14,-1,-1,16,18,20,22,24,26,-1,-1,-1,-1,-1,-1,-1,-1,-1,-1,-1,-1],"split_conditions":[3E-1,3.561E2,1.62E2,2E0,1E-2,1.39E2,5.03011E3,-5.8750875E-2,3.5845358E-2,1E0,5E-2,3.3E-1,3.5E-1,1.185E3,3.4E-1,-5.961728E-2,3.1201933E-2,-1.2188499E-2,-5.5954856E-4,7.1209106E-3,3.8212012E-2,-2.447846E-2,1.4823536E-2,4.9674623E-2,-0E0,-2.006051E-2,3.8589526E-2],"split_indices":[15,1,12,3,15,12,1,0,0,3,15,15,15,12,15,0,0,0,0,0,0,0,0,0,0,0,0],"split_type":[0,0,0,0,0,0,0,0,0,0,0,0,0,0,0,0,0,0,0,0,0,0,0,0,0,0,0],"sum_hessian":[1.0992537E3,9.9367194E2,1.0558166E2,1.5037442E1,9.786345E2,2.042812E1,8.5153534E1,1.2330261E1,2.7071815E0,4.752156E1,9.31113E2,1.808433E1,2.3437896E0,7.885256E1,6.300971E0,7.0024066E0,4.0519154E1,3.513125E2,5.798005E2,3.8493762E0,1.4234954E1,1.2912855E0,1.052504E0,7.659734E1,2.2552173E0,2.0797293E0,4.2212415E0],"tree_param":{"num_deleted":"0","num_feature":"16","num_nodes":"27","size_leaf_vector":"1"}},{"base_weights":[2.7712535E-3,-8.579659E-2,8.642276E-1,-6.869904E-2,-5.3974193E-1,5.6211644E-1,9.242622E-1,-8.051837E-2,8.2665676E-1,5.9275484E-1,-9.143767E-1,6.6013646E-1,-0E0,9.641621E-1,3.0232877E-1,-2.2620138E-2,-2.3426001E-3,7.120874E-2,-3.834027E-2,5.354594E-2,-3.1307925E-2,-5.625334E-2,3.58229E-2,6.8715895E-3,3.7622016E-2,-2.4349153E-2,1.5038042E-2,4.9417708E-2,-0E0,-1.9157982E-2,3.806831E-2],"categories":[],"categories_nodes":[],"categories_segments":[],"categories_sizes":[],"default_left":[0,0,0,0,0,0,0,0,0,0,0,0,0,0,0,0,0,0,0,0,0,0,0,0,0,0,0,0,0,0,0],"id":50,"left_children":[1,3,5,7,9,11,13,15,17,19,21,23,25,27,29,-1,-1,-1,-1,-1,-1,-1,-1,-1,-1,-1,-1,-1,-1,-1,-1],"loss_changes":[8.395629E1,7.363193E0,5.987854E-1,9.840532E0,1.5477677E1,1.4821129E0,1.127182E0,1.1595884E1,1.2874964E1,6.09847E0,1.0250713E1,3.4855175E-1,7.3077863E-1,1.4100876E0,2.7455723E0,0E0,0E0,0E0,0E0,0E0,0E0,0E0,0E0,0E0,0E0,0E0,0E0,0E0,0E0,0E0,0E0],"parents":[2147483647,0,0,1,1,2,2,3,3,4,4,5,5,6,6,7,7,8,8,9,9,10,10,11,11,12,12,13,13,14,14],"right_children":[2,4,6,8,10,12,14,16,18,20,22,24,26,28,30,-1,-1,-1,-1,-1,-1,-1,-1,-1,-1,-1,-1,-1,-1,-1,-1],"split_conditions":[3E-1,2.59015E3,1.62E2,2.38998E3,1.2E1,1.39E2,5.03011E3,1E1,3.21E2,1.97E2,7.27341E3,3.3E-1,2E0,1.185E3,3.4E-1,-2.2620138E-2,-2.3426001E-3,7.120874E-2,-3.834027E-2,5.354594E-2,-3.1307925E-2,-5.625334E-2,3.58229E-2,6.8715895E-3,3.7622016E-2,-2.4349153E-2,1.5038042E-2,4.9417708E-2,-0E0,-1.9157982E-2,3.806831E-2],"split_indices":[15,9,12,9,13,12,1,13,12,12,9,15,3,12,15,0,0,0,0,0,0,0,0,0,0,0,0,0,0,0,0],"split_type":[0,0,0,0,0,0,0,0,0,0,0,0,0,0,0,0,0,0,0,0,0,0,0,0,0,0,0,0,0,0,0],"sum_hessian":[1.09331E3,9.916743E2,1.0163579E2,9.578503E2,3.3823994E1,1.9947258E1,8.168853E1,9.468201E2,1.103019E1,7.9313064E0,2.5892687E1,1.7589464E1,2.3577938E0,7.54912E1,6.1973224E0,7.633389E1,8.704862E2,8.327541E0,2.702649E0,6.0784326E0,1.8528738E0,2.3476446E1,2.416239E0,3.826468E0,1.3762997E1,1.2944504E0,1.0633434E0,7.3235985E1,2.2552173E0,2.1150074E0,4.0823145E0],"tree_param":{"num_deleted":"0","num_feature":"16","num_nodes":"31","size_leaf_vector":"1"}},{"base_weights":[2.8190482E-3,-8.176142E-2,8.550134E-1,8.099525E-1,-9.029047E-2,5.493773E-1,9.168285E-1,6.388136E-2,-3.482946E-2,-3.5306787E-1,-4.9255557E-2,6.478303E-1,-0E0,9.581375E-1,2.9077002E-1,-5.7153862E-2,1.7700458E-3,2.8097292E-2,-5.7463977E-3,6.630221E-3,3.7029564E-2,-2.3798311E-2,1.5002713E-2,4.916163E-2,-0E0,-1.870654E-2,3.7610803E-2],"categories":[],"categories_nodes":[],"categories_segments":[],"categories_sizes":[],"default_left":[0,0,0,0,0,0,0,0,0,0,0,0,0,0,0,0,0,0,0,0,0,0,0,0,0,0,0],"id":51,"left_children":[1,3,5,7,9,11,13,-1,-1,15,17,19,21,23,25,-1,-1,-1,-1,-1,-1,-1,-1,-1,-1,-1,-1],"loss_changes":[7.888527E1,7.244465E0,6.3103485E-1,7.46985E0,1.0373677E1,1.4196029E0,1.1497879E0,0E0,0E0,4.0757088E1,3.4057022E1,3.3101273E-1,7.0887804E-1,1.3898087E0,2.6483097E0,0E0,0E0,0E0,0E0,0E0,0E0,0E0,0E0,0E0,0E0,0E0,0E0],"parents":[2147483647,0,0,1,1,2,2,3,3,4,4,5,5,6,6,9,9,10,10,11,11,12,12,13,13,14,14],"right_children":[2,4,6,8,10,12,14,-1,-1,16,18,20,22,24,26,-1,-1,-1,-1,-1,-1,-1,-1,-1,-1,-1,-1],"split_conditions":[3E-1,1E1,1.62E2,2E0,1.36E2,1.39E2,5.03011E3,6.388136E-2,-3.482946E-2,5E-2,2E2,3.3E-1,3.5E-1,1.185E3,4.1E-1,-5.7153862E-2,1.7700458E-3,2.8097292E-2,-5.7463977E-3,6.630221E-3,3.7029564E-2,-2.3798311E-2,1.5002713E-2,4.916163E-2,-0E0,-1.870654E-2,3.7610803E-2],"split_indices":[15,12,12,0,12,12,1,0,0,15,12,15,15,12,14,0,0,0,0,0,0,0,0,0,0,0,0],"split_type":[0,0,0,0,0,0,0,0,0,0,0,0,0,0,0,0,0,0,0,0,0,0,0,0,0,0,0],"sum_hessian":[1.0870941E3,9.892301E2,9.786397E1,7.9264894E0,9.8130365E2,1.948739E1,7.837658E1,6.4179897E0,1.5084995E0,1.2986858E2,8.5143506E2,1.7116035E1,2.3713536E0,7.227837E1,6.0982E0,4.2593307E1,8.7275276E1,8.113699E1,7.7029803E2,3.804466E0,1.331157E1,1.3098016E0,1.061552E0,7.0023155E1,2.2552173E0,2.131941E0,3.9662588E0],"tree_param":{"num_deleted":"0","num_feature":"16","num_nodes":"27","size_leaf_vector":"1"}},{"base_weights":[2.879914E-3,-7.7862106E-2,8.4572124E-1,1.255483E-1,-1.1451974E-1,5.367652E-1,9.09336E-1,5.2039385E-1,-2.7993762E-1,-3.473192E-1,-1.3245398E-2,6.355639E-1,-0E0,9.520875E-1,2.795009E-1,-5.921258E-3,3.9105654E-2,2.2312729E-2,-2.9564796E-2,-5.6039453E-2,-9.7948015E-3,-3.3262286E-2,1.3133612E-3,6.3965977E-3,3.643462E-2,-2.3673331E-2,1.520284E-2,4.8905786E-2,-0E0,-1.7873932E-2,3.7093364E-2],"categories":[],"categories_nodes":[],"categories_segments":[],"categories_sizes":[],"default_left":[0,0,0,0,0,0,0,0,0,0,0,0,0,0,0,0,0,0,0,0,0,0,0,0,0,0,0,0,0,0,0],"id":52,"left_children":[1,3,5,7,9,11,13,15,17,19,21,23,25,27,29,-1,-1,-1,-1,-1,-1,-1,-1,-1,-1,-1,-1,-1,-1,-1,-1],"loss_changes":[7.4115585E1,7.377589E0,6.610794E-1,2.4168324E1,1.961782E1,1.358788E0,1.1701927E0,1.3233545E1,1.6995752E1,2.8764093E1,1.5481088E1,3.1349134E-1,7.1000695E-1,1.3696404E0,2.5199542E0,0E0,0E0,0E0,0E0,0E0,0E0,0E0,0E0,0E0,0E0,0E0,0E0,0E0,0E0,0E0,0E0],"parents":[2147483647,0,0,1,1,2,2,3,3,4,4,5,5,6,6,7,7,8,8,9,9,10,10,11,11,12,12,13,13,14,14],"right_children":[2,4,6,8,10,12,14,16,18,20,22,24,26,28,30,-1,-1,-1,-1,-1,-1,-1,-1,-1,-1,-1,-1,-1,-1,-1,-1],"split_conditions":[3E-1,2E-2,1.62E2,1.4E-1,5E-2,1.39E2,5.03011E3,2.77E2,1.97E2,1.02564E3,3E-2,3.3E-1,2E0,1.185E3,3.4E-1,-5.921258E-3,3.9105654E-2,2.2312729E-2,-2.9564796E-2,-5.6039453E-2,-9.7948015E-3,-3.3262286E-2,1.3133612E-3,6.3965977E-3,3.643462E-2,-2.3673331E-2,1.520284E-2,4.8905786E-2,-0E0,-1.7873932E-2,3.7093364E-2],"split_indices":[15,15,12,14,15,12,1,12,12,1,14,15,3,12,15,0,0,0,0,0,0,0,0,0,0,0,0,0,0,0,0],"split_type":[0,0,0,0,0,0,0,0,0,0,0,0,0,0,0,0,0,0,0,0,0,0,0,0,0,0,0,0,0,0,0],"sum_hessian":[1.0814817E3,9.8722266E2,9.425899E1,1.4829279E2,8.389299E2,1.904776E1,7.521123E1,7.561333E1,7.267945E1,2.5208809E2,5.868418E2,1.666317E1,2.38459E0,6.920806E1,6.003169E0,2.1579046E1,5.4034283E1,2.119844E1,5.148101E1,3.9683086E1,2.1240501E2,3.3349957E1,5.534918E2,3.7833326E0,1.2879837E1,1.3128531E0,1.0717368E0,6.695284E1,2.2552173E0,2.165425E0,3.8377442E0],"tree_param":{"num_deleted":"0","num_feature":"16","num_nodes":"31","size_leaf_vector":"1"}},{"base_weights":[2.8085895E-3,-7.4292496E-2,8.363454E-1,-4.983445E-2,-3.823729E-1,5.2428156E-1,9.017759E-1,-8.7697335E-2,2.8697997E-1,-8.194121E-1,8.844013E-2,6.2334245E-1,-0E0,9.460011E-1,2.6855415E-1,4.1384008E-2,-5.2606915E-3,2.6041297E-2,-4.0589977E-2,-1.2527903E-3,-5.6318045E-2,3.6915913E-2,-1.7046053E-2,6.170476E-3,3.5837244E-2,-2.3151584E-2,1.5165791E-2,4.864962E-2,-0E0,-1.7459309E-2,3.6643088E-2],"categories":[],"categories_nodes":[],"categories_segments":[],"categories_sizes":[],"default_left":[0,0,0,0,0,0,0,0,0,0,0,0,0,0,0,0,0,0,0,0,0,0,0,0,0,0,0,0,0,0,0],"id":53,"left_children":[1,3,5,7,9,11,13,15,17,19,21,23,25,27,29,-1,-1,-1,-1,-1,-1,-1,-1,-1,-1,-1,-1,-1,-1,-1,-1],"loss_changes":[6.965636E1,7.1955647E0,6.888962E-1,1.1610599E1,1.502204E1,1.2998176E0,1.1882324E0,1.2966638E1,2.378618E1,8.51652E0,1.0069309E1,2.9602575E-1,6.8944985E-1,1.3495216E0,2.4303408E0,0E0,0E0,0E0,0E0,0E0,0E0,0E0,0E0,0E0,0E0,0E0,0E0,0E0,0E0,0E0,0E0],"parents":[2147483647,0,0,1,1,2,2,3,3,4,4,5,5,6,6,7,7,8,8,9,9,10,10,11,11,12,12,13,13,14,14],"right_children":[2,4,6,8,10,12,14,16,18,20,22,24,26,28,30,-1,-1,-1,-1,-1,-1,-1,-1,-1,-1,-1,-1,-1,-1,-1,-1],"split_conditions":[3E-1,1.58887E3,1.62E2,3.5702E2,2.1E-1,1.39E2,5.03011E3,1.5E1,3E0,1E0,1E0,3.3E-1,3.5E-1,1.185E3,4.1E-1,4.1384008E-2,-5.2606915E-3,2.6041297E-2,-4.0589977E-2,-1.2527903E-3,-5.6318045E-2,3.6915913E-2,-1.7046053E-2,6.170476E-3,3.5837244E-2,-2.3151584E-2,1.5165791E-2,4.864962E-2,-0E0,-1.7459309E-2,3.6643088E-2],"split_indices":[15,9,12,9,14,12,1,12,0,0,2,15,15,12,14,0,0,0,0,0,0,0,0,0,0,0,0,0,0,0,0],"split_type":[0,0,0,0,0,0,0,0,0,0,0,0,0,0,0,0,0,0,0,0,0,0,0,0,0,0,0,0,0,0,0],"sum_hessian":[1.07597E3,9.8515533E2,9.081458E1,9.152775E2,6.9877815E1,1.8627445E1,7.218714E1,8.247838E2,9.049368E1,3.6405468E1,3.3472343E1,1.6230047E1,2.3973966E0,6.627483E1,5.9123054E0,1.4082155E1,8.1070166E2,7.542296E1,1.5070724E1,1.0902172E1,2.5503296E1,1.3493548E1,1.9978796E1,3.7630286E0,1.2467019E1,1.3275511E0,1.0698454E0,6.4019615E1,2.2552173E0,2.1812801E0,3.7310252E0],"tree_param":{"num_deleted":"0","num_feature":"16","num_nodes":"31","size_leaf_vector":"1"}},{"base_weights":[2.8049257E-3,-7.0830636E-2,8.2687914E-1,-8.627045E-2,4.1847017E-1,5.1193815E-1,8.941369E-1,-6.1648507E-2,-8.909848E-1,-3.8508713E-2,5.734192E-1,6.1117166E-1,-0E0,9.39867E-1,2.5789192E-1,-6.2760846E-3,3.4598173E-3,-5.6625456E-2,4.9685862E-2,3.46211E-2,-3.8150333E-2,5.951751E-3,3.523752E-2,-2.3030756E-2,1.5352366E-2,4.839257E-2,-0E0,-1.6689718E-2,3.6129188E-2],"categories":[],"categories_nodes":[],"categories_segments":[],"categories_sizes":[],"default_left":[0,0,0,0,0,0,0,0,0,0,0,0,0,0,0,0,0,0,0,0,0,0,0,0,0,0,0,0,0],"id":54,"left_children":[1,3,5,7,9,11,13,15,17,-1,19,21,23,25,27,-1,-1,-1,-1,-1,-1,-1,-1,-1,-1,-1,-1,-1,-1],"loss_changes":[6.545441E1,7.3034034E0,7.143593E-1,1.840392E1,5.7357874E0,1.2425447E0,1.2041016E0,7.8006783E0,1.3801695E1,0E0,4.7628193E0,2.7864742E-1,6.90493E-1,1.3294334E0,2.3121896E0,0E0,0E0,0E0,0E0,0E0,0E0,0E0,0E0,0E0,0E0,0E0,0E0,0E0,0E0],"parents":[2147483647,0,0,1,1,2,2,3,3,4,4,5,5,6,6,7,7,8,8,10,10,11,11,12,12,13,13,14,14],"right_children":[2,4,6,8,10,12,14,16,18,-1,20,22,24,26,28,-1,-1,-1,-1,-1,-1,-1,-1,-1,-1,-1,-1,-1,-1],"split_conditions":[3E-1,6.52775E3,1.62E2,5.28328E3,3.72E2,1.39E2,5.03011E3,6.8E1,1E-1,-3.8508713E-2,2E0,3.3E-1,2E0,1.185E3,4.1E-1,-6.2760846E-3,3.4598173E-3,-5.6625456E-2,4.9685862E-2,3.46211E-2,-3.8150333E-2,5.951751E-3,3.523752E-2,-2.3030756E-2,1.5352366E-2,4.839257E-2,-0E0,-1.6689718E-2,3.6129188E-2],"split_indices":[15,1,12,1,12,12,1,13,15,0,3,15,3,12,14,0,0,0,0,0,0,0,0,0,0,0,0,0,0],"split_type":[0,0,0,0,0,0,0,0,0,0,0,0,0,0,0,0,0,0,0,0,0,0,0,0,0,0,0,0,0],"sum_hessian":[1.0704661E3,9.8294214E2,8.752398E1,9.546634E2,2.8278713E1,1.8225758E1,6.929822E1,9.279682E2,2.6695215E1,2.4311917E0,2.584752E1,1.5815868E1,2.40989E0,6.3473022E1,5.8251977E0,6.261628E2,3.0180542E2,2.4251753E1,2.4434612E0,2.4520128E1,1.3273922E0,3.7435286E0,1.207234E1,1.3304877E0,1.0794022E0,6.1217808E1,2.2552173E0,2.2130516E0,3.6121461E0],"tree_param":{"num_deleted":"0","num_feature":"16","num_nodes":"29","size_leaf_vector":"1"}},{"base_weights":[2.8046195E-3,-6.752251E-2,8.173183E-1,-7.431502E-1,-5.6154937E-2,4.997367E-1,8.864114E-1,-5.772065E-2,7.1684784E-1,2.9616116E-2,-1.5296923E-1,5.990578E-1,-0E0,9.336752E-1,2.4754378E-1,-1.9933471E-2,7.277458E-2,-2.7871567E-3,2.8474689E-2,8.87302E-3,-1.084725E-2,-0E0,3.1661462E-2,-2.253629E-2,1.5313725E-2,4.813413E-2,-0E0,-1.6297868E-2,3.5683878E-2],"categories":[],"categories_nodes":[],"categories_segments":[],"categories_sizes":[],"default_left":[0,0,0,0,0,0,0,0,0,0,0,0,0,0,0,0,0,0,0,0,0,0,0,0,0,0,0,0,0],"id":55,"left_children":[1,3,5,7,9,11,13,-1,15,17,19,21,23,25,27,-1,-1,-1,-1,-1,-1,-1,-1,-1,-1,-1,-1,-1,-1],"loss_changes":[6.150331E1,7.099054E0,7.3744965E-1,1.0314784E1,8.099036E0,1.1871009E0,1.2176361E0,0E0,4.192153E0,2.3838875E1,9.725892E0,2.7265072E-1,6.71175E-1,1.3093338E0,2.2287924E0,0E0,0E0,0E0,0E0,0E0,0E0,0E0,0E0,0E0,0E0,0E0,0E0,0E0,0E0],"parents":[2147483647,0,0,1,1,2,2,3,3,4,4,5,5,6,6,8,8,9,9,10,10,11,11,12,12,13,13,14,14],"right_children":[2,4,6,8,10,12,14,-1,16,18,20,22,24,26,28,-1,-1,-1,-1,-1,-1,-1,-1,-1,-1,-1,-1,-1,-1],"split_conditions":[3E-1,3.561E2,1.62E2,1.01E2,2.39972E3,1.39E2,5.03011E3,-5.772065E-2,2E0,2.15301E3,2E-2,2E0,3.5E-1,1.185E3,3.4E-1,-1.9933471E-2,7.277458E-2,-2.7871567E-3,2.8474689E-2,8.87302E-3,-1.084725E-2,-0E0,3.1661462E-2,-2.253629E-2,1.5313725E-2,4.813413E-2,-0E0,-1.6297868E-2,3.5683878E-2],"split_indices":[15,1,12,13,1,12,1,0,3,1,15,7,15,12,15,0,0,0,0,0,0,0,0,0,0,0,0,0,0],"split_type":[0,0,0,0,0,0,0,0,0,0,0,0,0,0,0,0,0,0,0,0,0,0,0,0,0,0,0,0,0],"sum_hessian":[1.0651776E3,9.8079645E2,8.438116E1,1.4436042E1,9.663604E2,1.7841827E1,6.653933E1,1.1693814E1,2.7422268E0,5.1003378E2,4.563266E2,1.5419856E1,2.4219704E0,6.0797413E1,5.7419147E0,1.0061172E0,1.7361096E0,4.4037704E2,6.9656746E1,7.2464424E1,3.8386218E2,1.0443765E0,1.437548E1,1.344553E0,1.0774174E0,5.8542194E1,2.2552173E0,2.228356E0,3.5135589E0],"tree_param":{"num_deleted":"0","num_feature":"16","num_nodes":"29","size_leaf_vector":"1"}},{"base_weights":[2.8396153E-3,-6.427094E-2,8.075117E-1,-7.2847545E-2,7.8576565E-1,4.8667538E-1,8.7859035E-1,-3.5999436E-2,-3.9072907E-1,-4.290554E-2,7.3209256E-2,5.645693E-1,-6.745726E-3,9.2741597E-1,2.3747456E-1,-2.5129688E-3,4.423086E-2,-6.573654E-2,-2.651397E-3,-0E0,3.524579E-2,4.787379E-2,-0E0,-1.5586277E-2,3.517355E-2],"categories":[],"categories_nodes":[],"categories_segments":[],"categories_sizes":[],"default_left":[0,0,0,0,0,0,0,0,0,0,0,0,0,0,0,0,0,0,0,0,0,0,0,0,0],"id":56,"left_children":[1,3,5,7,9,11,13,15,17,-1,-1,19,-1,21,23,-1,-1,-1,-1,-1,-1,-1,-1,-1,-1],"loss_changes":[5.774463E1,6.8461523E0,7.679596E-1,1.115571E1,1.1922998E1,1.1845284E0,1.2290268E0,1.1092872E1,3.0274494E1,0E0,0E0,1.0298748E0,0E0,1.289196E0,2.1201568E0,0E0,0E0,0E0,0E0,0E0,0E0,0E0,0E0,0E0,0E0],"parents":[2147483647,0,0,1,1,2,2,3,3,4,4,5,5,6,6,7,7,8,8,11,11,13,13,14,14],"right_children":[2,4,6,8,10,12,14,16,18,-1,-1,20,-1,22,24,-1,-1,-1,-1,-1,-1,-1,-1,-1,-1],"split_conditions":[3E-1,1.474E3,1.62E2,9.48E2,4.3E1,5.7E-1,5.03011E3,9.33E2,1.1E-1,-4.290554E-2,7.3209256E-2,3.3E-1,-6.745726E-3,1.185E3,3.4E-1,-2.5129688E-3,4.423086E-2,-6.573654E-2,-2.651397E-3,-0E0,3.524579E-2,4.787379E-2,-0E0,-1.5586277E-2,3.517355E-2],"split_indices":[15,12,12,12,13,14,1,12,14,0,0,15,0,12,15,0,0,0,0,0,0,0,0,0,0],"split_type":[0,0,0,0,0,0,0,0,0,0,0,0,0,0,0,0,0,0,0,0,0,0,0,0,0],"sum_hessian":[1.060463E3,9.791034E2,8.135957E1,9.708107E2,8.292663E0,1.7454517E1,6.3905056E1,8.7237335E2,9.8437386E1,2.1298802E0,6.1627827E0,1.6307129E1,1.1473897E0,5.8242977E1,5.662078E0,8.605326E2,1.1840742E1,2.5176598E1,7.326079E1,4.132969E0,1.217416E1,5.598776E1,2.2552173E0,2.2584584E0,3.4036193E0],"tree_param":{"num_deleted":"0","num_feature":"16","num_nodes":"25","size_leaf_vector":"1"}},{"base_weights":[2.8294853E-3,-6.12041E-2,7.9764116E-1,-3.7789334E-2,-3.609994E-1,4.7385615E-1,8.7066615E-1,-5.728694E-2,5.406248E-1,-7.94721E-1,9.087763E-2,5.523779E-1,-6.543794E-3,9.210791E-1,2.2771066E-1,7.8187604E-4,-1.2491667E-2,9.29893E-2,5.414884E-3,-3.0033485E-4,-5.5594828E-2,3.509361E-2,-1.5905254E-2,-0E0,3.4649145E-2,4.7611043E-2,-0E0,-1.52261555E-2,3.473522E-2],"categories":[],"categories_nodes":[],"categories_segments":[],"categories_sizes":[],"default_left":[0,0,0,0,0,0,0,0,0,0,0,0,0,0,0,0,0,0,0,0,0,0,0,0,0,0,0,0,0],"id":57,"left_children":[1,3,5,7,9,11,13,15,17,19,21,23,-1,25,27,-1,-1,-1,-1,-1,-1,-1,-1,-1,-1,-1,-1,-1,-1],"loss_changes":[5.4218143E1,6.6566515E0,7.9416656E-1,1.0056575E1,1.3993037E1,1.1415133E0,1.2381325E0,1.25119E1,1.5323541E1,8.438503E0,8.971164E0,9.7879887E-1,0E0,1.2689819E0,2.043531E0,0E0,0E0,0E0,0E0,0E0,0E0,0E0,0E0,0E0,0E0,0E0,0E0,0E0,0E0],"parents":[2147483647,0,0,1,1,2,2,3,3,4,4,5,5,6,6,7,7,8,8,9,9,10,10,11,11,13,13,14,14],"right_children":[2,4,6,8,10,12,14,16,18,20,22,24,-1,26,28,-1,-1,-1,-1,-1,-1,-1,-1,-1,-1,-1,-1,-1,-1],"split_conditions":[3E-1,1.58887E3,1.62E2,1.25056E3,2.1E-1,5.7E-1,5.03011E3,2.2E-1,1.45876E3,1E0,1E0,3.3E-1,-6.543794E-3,1.185E3,4.1E-1,7.8187604E-4,-1.2491667E-2,9.29893E-2,5.414884E-3,-3.0033485E-4,-5.5594828E-2,3.509361E-2,-1.5905254E-2,-0E0,3.4649145E-2,4.7611043E-2,-0E0,-1.52261555E-2,3.473522E-2],"split_indices":[15,9,12,9,14,14,1,14,1,0,2,15,0,12,14,0,0,0,0,0,0,0,0,0,0,0,0,0,0],"split_type":[0,0,0,0,0,0,0,0,0,0,0,0,0,0,0,0,0,0,0,0,0,0,0,0,0,0,0,0,0],"sum_hessian":[1.0561075E3,9.776385E2,7.846902E1,9.094055E2,6.8232994E1,1.7078897E1,6.1390118E1,8.8145807E2,2.7947443E1,3.499337E1,3.3239628E1,1.5924553E1,1.1543441E0,5.5804367E1,5.5857496E0,6.381058E2,2.4335231E2,5.797914E0,2.2149529E1,1.078066E1,2.421271E1,1.3531226E1,1.97084E1,4.132969E0,1.1791584E1,5.354915E1,2.2552173E0,2.2727363E0,3.3130133E0],"tree_param":{"num_deleted":"0","num_feature":"16","num_nodes":"29","size_leaf_vector":"1"}},{"base_weights":[2.8980353E-3,-5.821999E-2,7.876585E-1,-7.3149726E-2,4.1334566E-1,4.6118107E-1,8.626309E-1,-4.9745407E-2,-8.668602E-1,-3.7345152E-2,5.6170917E-1,5.6502247E-1,-7.750076E-3,9.146558E-1,2.1821806E-1,-2.9444771E-3,4.2032897E-2,-5.5785265E-2,4.758411E-2,3.421196E-2,-3.605574E-2,4.0192585E-3,3.338114E-2,-2.4576232E-2,1.4615259E-2,4.7345407E-2,-0E0,-1.4567285E-2,3.4228653E-2],"categories":[],"categories_nodes":[],"categories_segments":[],"categories_sizes":[],"default_left":[0,0,0,0,0,0,0,0,0,0,0,0,0,0,0,0,0,0,0,0,0,0,0,0,0,0,0,0,0],"id":58,"left_children":[1,3,5,7,9,11,13,15,17,-1,19,21,23,25,27,-1,-1,-1,-1,-1,-1,-1,-1,-1,-1,-1,-1,-1,-1],"loss_changes":[5.089323E1,6.7373195E0,8.178711E-1,1.7122313E1,5.336124E0,1.145886E0,1.2451439E0,7.1754713E0,1.31365185E1,0E0,4.68019E0,3.3777905E-1,7.260995E-1,1.2486725E0,1.9436929E0,0E0,0E0,0E0,0E0,0E0,0E0,0E0,0E0,0E0,0E0,0E0,0E0,0E0,0E0],"parents":[2147483647,0,0,1,1,2,2,3,3,4,4,5,5,6,6,7,7,8,8,10,10,11,11,12,12,13,13,14,14],"right_children":[2,4,6,8,10,12,14,16,18,-1,20,22,24,26,28,-1,-1,-1,-1,-1,-1,-1,-1,-1,-1,-1,-1,-1,-1],"split_conditions":[3E-1,6.52775E3,1.62E2,5.28328E3,3.72E2,1.39E2,5.03011E3,1.474E3,1E-1,-3.7345152E-2,9.92E2,1.33574E3,2E0,1.185E3,4.1E-1,-2.9444771E-3,4.2032897E-2,-5.5785265E-2,4.758411E-2,3.421196E-2,-3.605574E-2,4.0192585E-3,3.338114E-2,-2.4576232E-2,1.4615259E-2,4.7345407E-2,-0E0,-1.4567285E-2,3.4228653E-2],"split_indices":[15,1,12,1,12,12,1,12,15,0,12,1,3,12,14,0,0,0,0,0,0,0,0,0,0,0,0,0,0],"split_type":[0,0,0,0,0,0,0,0,0,0,0,0,0,0,0,0,0,0,0,0,0,0,0,0,0,0,0,0,0],"sum_hessian":[1.0515331E3,9.7582355E2,7.570956E1,9.477238E2,2.8099697E1,1.6720098E1,5.8989456E1,9.2222266E2,2.5501162E1,2.346325E0,2.5753372E1,1.4393991E1,2.3261065E0,5.3476887E1,5.5125713E0,9.1432825E2,7.89443E0,2.3013481E1,2.4876814E0,2.4289701E1,1.4636713E0,3.67792E0,1.0716071E1,1.2840683E0,1.0420382E0,5.122167E1,2.2552173E0,2.3012414E0,3.2113302E0],"tree_param":{"num_deleted":"0","num_feature":"16","num_nodes":"29","size_leaf_vector":"1"}},{"base_weights":[2.9201524E-3,-5.5459622E-2,7.776099E-1,-7.1885383E-1,-4.4517003E-2,3.3233556E-1,8.2946986E-1,-5.6621462E-2,3.4647577E-2,-5.0275505E-4,-2.2515152E-1,3.790393E-2,-0E0,8.8779175E-1,1.9335458E-1,-1.9855378E-2,1.784911E-3,-5.6545235E-2,-9.3213626E-4,2.2370918E-2,-3.765397E-2,4.6666194E-2,-0E0,-1.3578546E-2,3.4790352E-2],"categories":[],"categories_nodes":[],"categories_segments":[],"categories_sizes":[],"default_left":[0,0,0,0,0,0,0,0,0,0,0,0,0,0,0,0,0,0,0,0,0,0,0,0,0],"id":59,"left_children":[1,3,5,7,9,11,13,-1,-1,15,17,-1,19,21,23,-1,-1,-1,-1,-1,-1,-1,-1,-1,-1],"loss_changes":[4.7798264E1,6.6628656E0,8.5463715E-1,9.769375E0,7.5260396E0,1.7946465E0,1.6880684E0,0E0,0E0,1.1333389E1,3.4198467E1,0E0,2.5836864E0,2.0873718E0,2.1372535E0,0E0,0E0,0E0,0E0,0E0,0E0,0E0,0E0,0E0,0E0],"parents":[2147483647,0,0,1,1,2,2,3,3,4,4,5,5,6,6,9,9,10,10,12,12,13,13,14,14],"right_children":[2,4,6,8,10,12,14,-1,-1,16,18,-1,20,22,24,-1,-1,-1,-1,-1,-1,-1,-1,-1,-1],"split_conditions":[3E-1,3.561E2,9.2E1,1.01E2,8.05E2,3.9E1,5.03011E3,-5.6621462E-2,3.4647577E-2,2E0,1E0,3.790393E-2,2E0,5.9E-1,3.4E-1,-1.9855378E-2,1.784911E-3,-5.6545235E-2,-9.3213626E-4,2.2370918E-2,-3.765397E-2,4.6666194E-2,-0E0,-1.3578546E-2,3.4790352E-2],"split_indices":[15,1,12,13,12,12,1,0,0,5,3,0,11,14,15,0,0,0,0,0,0,0,0,0,0],"split_type":[0,0,0,0,0,0,0,0,0,0,0,0,0,0,0,0,0,0,0,0,0,0,0,0,0],"sum_hessian":[1.0469335E3,9.738297E2,7.310376E1,1.4011302E1,9.598184E2,9.40461E0,6.3699146E1,1.1263736E1,2.7475655E0,7.747983E2,1.8502016E2,4.122482E0,5.2821283E0,5.726699E1,6.4321575E0,6.512748E1,7.096708E2,3.307125E1,1.519489E2,3.2137518E0,2.0683768E0,5.4116837E1,3.150153E0,3.0626447E0,3.3695128E0],"tree_param":{"num_deleted":"0","num_feature":"16","num_nodes":"25","size_leaf_vector":"1"}},{"base_weights":[2.787104E-3,-5.292581E-2,7.6733726E-1,-1.17784604E-1,4.6352915E-2,4.3512538E-1,8.4635186E-1,-5.8792837E-2,-8.481503E-2,-5.6875587E-1,1.2117666E-1,5.4225487E-1,-3.0887974E-2,9.016453E-1,1.9950055E-1,-1.7716024E-2,4.5930358E-4,1.9066457E-2,-5.6901526E-2,-5.723269E-3,1.504532E-2,2.9342955E-3,3.2349657E-2,-7.2821947E-3,-0E0,4.682558E-2,-0E0,-1.3646193E-2,3.3278346E-2],"categories":[],"categories_nodes":[],"categories_segments":[],"categories_sizes":[],"default_left":[0,0,0,0,0,0,0,0,0,0,0,0,0,0,0,0,0,0,0,0,0,0,0,0,0,0,0,0,0],"id":60,"left_children":[1,3,5,7,9,11,13,-1,15,17,19,21,23,25,27,-1,-1,-1,-1,-1,-1,-1,-1,-1,-1,-1,-1,-1,-1],"loss_changes":[4.48713E1,6.30966E0,8.7018967E-1,1.9926712E1,1.7442707E1,1.1226091E0,1.2567482E0,0E0,1.4762907E1,2.294273E1,1.4630358E1,3.5740185E-1,4.2055283E-2,1.3198624E0,1.7808688E0,0E0,0E0,0E0,0E0,0E0,0E0,0E0,0E0,0E0,0E0,0E0,0E0,0E0,0E0],"parents":[2147483647,0,0,1,1,2,2,3,3,4,4,5,5,6,6,8,8,9,9,10,10,11,11,12,12,13,13,14,14],"right_children":[2,4,6,8,10,12,14,-1,16,18,20,22,24,26,28,-1,-1,-1,-1,-1,-1,-1,-1,-1,-1,-1,-1,-1,-1],"split_conditions":[3E-1,7E-2,1.62E2,4.4976E2,1.12E2,1.39E2,5.03011E3,-5.8792837E-2,2.6E1,1.33574E3,1.5E-1,1.33574E3,2E0,1.185E3,4.1E-1,-1.7716024E-2,4.5930358E-4,1.9066457E-2,-5.6901526E-2,-5.723269E-3,1.504532E-2,2.9342955E-3,3.2349657E-2,-7.2821947E-3,-0E0,4.682558E-2,-0E0,-1.3646193E-2,3.3278346E-2],"split_indices":[15,15,12,1,12,12,1,0,13,1,14,1,0,12,14,0,0,0,0,0,0,0,0,0,0,0,0,0,0],"split_type":[0,0,0,0,0,0,0,0,0,0,0,0,0,0,0,0,0,0,0,0,0,0,0,0,0,0,0,0,0],"sum_hessian":[1.0430931E3,9.725035E2,7.0589714E1,5.911531E2,3.813504E2,1.6029505E1,5.456021E1,1.6357924E1,5.7479517E2,3.991714E1,3.4143326E2,1.3772696E1,2.2568085E0,4.918865E1,5.371565E0,1.492987E2,4.2549646E2,1.4750795E1,2.5166346E1,1.466902E2,1.9474304E2,3.5796828E0,1.0193013E1,1.1290867E0,1.1277218E0,4.702605E1,2.1625962E0,2.340618E0,3.0309472E0],"tree_param":{"num_deleted":"0","num_feature":"16","num_nodes":"29","size_leaf_vector":"1"}},{"base_weights":[2.6746949E-3,-5.051189E-2,7.5697374E-1,1.3808088E-1,-8.4846206E-2,3.0583897E-1,8.1158364E-1,5.095984E-1,-2.508902E-1,-3.0708954E-1,8.852863E-3,3.701252E-2,-6.253837E-3,8.732759E-1,1.7450202E-1,-4.8709862E-2,3.086786E-2,-3.704729E-2,1.0006958E-2,-5.4073837E-2,-7.978286E-3,-4.2077016E-2,1.9496909E-3,2.134884E-2,-3.693517E-2,4.611313E-2,-0E0,-1.298736E-2,3.3873547E-2],"categories":[],"categories_nodes":[],"categories_segments":[],"categories_sizes":[],"default_left":[0,0,0,0,0,0,0,0,0,0,0,0,0,0,0,0,0,0,0,0,0,0,0,0,0,0,0,0,0],"id":61,"left_children":[1,3,5,7,9,11,13,15,17,19,21,-1,23,25,27,-1,-1,-1,-1,-1,-1,-1,-1,-1,-1,-1,-1,-1,-1],"loss_changes":[4.212669E1,6.279602E0,8.979912E-1,2.1623755E1,1.7336588E1,1.7363213E0,1.6872826E0,1.2672628E1,1.6386688E1,2.7350248E1,1.4494999E1,0E0,2.4321249E0,2.165554E0,1.9736952E0,0E0,0E0,0E0,0E0,0E0,0E0,0E0,0E0,0E0,0E0,0E0,0E0,0E0,0E0],"parents":[2147483647,0,0,1,1,2,2,3,3,4,4,5,5,6,6,7,7,8,8,9,9,10,10,12,12,13,13,14,14],"right_children":[2,4,6,8,10,12,14,16,18,20,22,-1,24,26,28,-1,-1,-1,-1,-1,-1,-1,-1,-1,-1,-1,-1,-1,-1],"split_conditions":[3E-1,2E-2,9.2E1,1.4E-1,5E-2,3.9E1,